tree
version=v4
num_class=1
num_tree_per_iteration=1
label_index=0
max_feature_idx=7
objective=binary sigmoid:1
feature_names=mean_r mean_g mean_b std_r std_g std_b entropy lsb_ratio
feature_infos=[0:212.87129999999999] [0:203.73785000000001] [0:206.57704000000001] [0:127.3349] [0:127.17632999999999] [0:127.17632999999999] [0:7.1594026184199615] [0:0.84266281127929688]
tree_sizes=6123 6835 6864 6857 6840 6842 6847 6826 6827 6830 6833 6841 6837 6845 6828 6836 6839 6841 6827 6809 6860 6845 6846 6815 6836 6840 6843 6852 6814 6837 6852 6820 6840 6859 6832 6854 6844 6837 6871 6857 6855 6881 6823 6847 6822 6873 6846 6841 6879 6854 6861 6859 6839 6834 6842 6863 6840 6818 6828 6845 6856 6829 6814 6841 6844 6854 6815 6816 6851 6866 6827 6838 6836 6861 6833 6835 6835 6837 6857 6842 6839 6827 6842 6833 6844 6829 6840 6880 6875 6831 6845 6834 6839 6811 6860 6871 6864 6865 6809 6841 6827 6839 6836 6826 6825 6824 6871 6788 6855 6825 6820 6864 6846 6850 6838 6809 6827 6810 6813 6824 6883 6820 6838 6848 6856 6825 6836 6864 6864 6865 6822 6828 6829 6835 6828 6867 6831 6831 6853 6835 6839 6879 6825 6854 6830 6872 6868 6837 6860 6808 6824 6874 6853 6831 6824 6858 6836 6866 6829 6841 6851 6841 6856 6823 6860 6842 6878 6868 6801 6868 6833 6869 6867 6860 6849 6869 6798 6846 6831 6863 6854 6871 6862 6863 6892 6846 6829 6842 6819 6853 6856 6832 6825 6845 6850 6821 6830 6836 6810 6851 6852 6859

Tree=0
num_leaves=64
num_cat=0
split_feature=7 5 2 7 7 5 7 2 1 7 7 4 4 1 1 0 2 5 5 7 2 0 7 5 2 7 1 4 7 1 7 7 0 5 7 5 7 5 7 4 0 2 1 1 1 1 1 7 0 0 7 2 2 2 5 7 0 2 5 2 7 0 4
split_gain=298.163 58.2118 175.102 64.7827 44.12 39.7594 36.2869 41.8186 35.0144 32.5523 27.9531 28.243 18.3405 22.1814 17.9408 23.5911 21.5136 17.6674 16.7945 28.5856 21.678 21.2208 17.473 17.2955 15.7733 15.2102 22.4284 27.1004 17.348 15.1438 14.8114 14.0245 13.8044 13.5155 13.3649 13.2009 13.9069 12.9367 13.3247 13.8706 11.5187 12.4145 12.2222 15.7143 11.3643 11.8811 14.4516 11.3208 11.5034 11.1015 11.0303 11.1273 12.4297 11.012 13.5283 13.8037 13.2123 12.2504 17.28 15.2585 13.952 11.4537 10.7677
threshold=0.36752128601074224 116.30629500000002 176.86551500000002 0.57090950012207042 0.48898124694824224 116.30606250000001 0.30344390869140631 136.96952000000002 44.632896500000008 0.5181407928466798 0.40038108825683599 71.266590000000022 95.410010000000014 144.66536000000002 110.84348000000001 149.55819000000002 49.215684000000003 116.07115250000001 102.23831700000001 0.35667419433593756 117.10330750000001 59.802406000000005 0.36395263671875006 119.27359500000001 133.42353000000003 0.057031631469726507 148.13381500000003 114.59801250000002 0.077163696289062514 37.243643500000012 0.27629852294921881 0.38732147216796881 99.39204500000001 116.31043700000002 0.31668090820312506 116.19691200000001 0.432830810546875 100.76494500000001 0.37258338928222662 104.03532750000001 41.154917000000005 141.41324500000005 95.427827000000022 75.035422000000025 112.27530000000002 120.51092000000001 126.89748500000002 0.48898124694824224 63.531537500000006 129.35374500000003 0.40621566772460943 87.346307500000009 161.32165500000002 125.79536500000002 90.258625000000009 0.31779098510742193 26.000181000000005 67.881717000000023 39.888191500000005 46.914156000000006 0.36193084716796881 47.088833500000007 109.09204200000001
decision_type=2 2 2 2 2 2 2 2 2 2 2 2 2 2 2 2 2 2 2 2 2 2 2 2 2 2 2 2 2 2 2 2 2 2 2 2 2 2 2 2 2 2 2 2 2 2 2 2 2 2 2 2 2 2 2 2 2 2 2 2 2 2 2
left_child=6 3 4 5 44 8 25 18 -2 -6 12 47 14 31 15 16 -10 -13 32 20 21 -20 -21 -22 -11 -1 29 30 -29 -27 -28 37 53 -4 49 36 -19 -14 -39 -40 42 -42 43 -18 -3 -46 -47 48 -12 -34 -50 -52 -53 54 56 -56 -8 58 -58 61 -61 -60 -15
right_child=1 2 33 -5 9 -7 7 -9 10 24 11 17 13 62 -16 -17 40 35 19 22 23 -23 -24 -25 -26 26 27 28 -30 -31 -32 -33 34 -35 -36 -37 -38 38 39 -41 41 -43 -44 -45 45 46 -48 -49 50 -51 51 52 -54 -55 55 -57 57 -59 59 60 -62 -63 -64
leaf_value=0.99535414330470129 1.1122988228844453 1.126254565090874 0.91912510918093027 1.0304019654650225 0.97133956139538247 1.1652789553347764 1.0865904307446126 1.0102963769375639 1.1101065415416731 1.0899848376877177 1.1191251091809302 1.0549446088302172 1.1112249012807225 1.0487226639440479 1.0199762413473026 1.0089571162543167 1.1367075267633477 1.0683092583650795 1.1462313362871575 1.1652789553347764 1.0210814244705788 1.0538865502714854 1.046760436816258 1.1119456220014432 1.028693589481118 1.0321841431701968 1.0144218124776336 1.0422020322578534 1.1652789553347764 1.0121420541521746 1.0967075267633479 1.1372087798961799 1.0123377788641883 0.97977170895796484 1.0148311941407466 1.0652789553347763 1.1652789553347764 1.0081360981919194 1.0408345108903321 1.1402789553347765 1.0487741009658444 0.99558198563780675 1.1652789553347764 1.0319456220014431 1.0230567331125542 1.1652789553347764 1.0706552994207978 1.0529982535803906 1.029108742568819 1.0715852616410828 1.0754393831422631 1.1652789553347764 1.0609311292478198 0.99230598236180345 1.0252789553347765 1.0847420425830987 1.0186122886681097 1.0198244098802309 1.0529982535803906 1.052259564753059 0.99626487082773418 1.1252789553347764 0.98066357071939181
leaf_weight=99.75 28.3125 15.374999999999998 31.6875 259.125 18.5625 8.6249999999999982 11.437499999999998 269.0625 16.3125 15.937499999999998 29.25 493.5 13.874999999999998 28.3125 89.8125 32.625 5.2500000000000062 6.1874999999999991 7.8749999999999991 8.0624999999999982 75.9375 29.625 5.0624999999999991 5.6249999999999991 30.75 104.8125 32.8125 4.8749999999999982 6.9375 935.4375 6.5624999999999991 10.687499999999998 12.749999999999998 12.937499999999998 188.4375 21 9.1874999999999982 10.500000000000002 8.4374999999999982 5.9999999999999991 96.5625 12.374999999999998 3.7499999999999991 11.249999999999998 8.4375000000000018 5.2500000000000027 17.4375 21.375 8.8124999999999982 20.8125 35.0625 8.4374999999999982 4.3124999999999991 13.874999999999998 14.999999999999998 27.9375 56.25 121.6875 10.687500000000002 67.6875 13.312499999999998 11.249999999999998 7.3124999999999991
leaf_count=306 131 74 65 916 51 46 49 879 75 69 138 1906 64 107 305 106 26 25 40 43 259 114 19 26 108 373 109 18 37 3079 29 53 42 37 627 84 49 34 31 30 365 38 20 40 29 28 71 82 31 85 145 45 17 42 52 119 190 413 41 259 41 54 21
internal_value=1.03163 1.04924 1.02043 1.05274 1.05387 1.05838 1.01989 1.02706 1.05747 1.02735 1.05591 1.06216 1.04462 1.06484 1.0382 1.04738 1.056 1.05742 1.03347 1.04953 1.04181 1.07328 1.11956 1.02735 1.04962 1.01404 1.01575 1.04806 1.11449 1.01416 1.02814 1.08649 1.02976 0.936708 1.02001 1.09105 1.12625 1.07253 1.05099 1.08216 1.04917 1.04273 1.0838 1.06528 1.09109 1.07371 1.09255 1.08556 1.09366 1.04908 1.08051 1.08998 1.12998 1.03596 1.03776 1.06397 1.03391 1.03177 1.0409 1.05307 1.04306 1.09007 1.03475
internal_weight=3606.19 1442.62 156.375 1286.25 111.75 1027.12 2163.56 972.375 1018.5 65.25 990.188 637.125 353.062 85.125 267.938 178.125 145.5 529.875 703.312 132.188 119.062 37.5 13.125 81.5625 46.6875 1191.19 1091.44 51.1875 11.8125 1040.25 39.375 49.5 571.125 44.625 222 36.375 15.375 38.8125 24.9375 14.4375 129.188 108.938 20.25 16.5 46.5 31.125 22.6875 107.25 85.875 33.5625 56.625 47.8125 12.75 349.125 335.25 42.9375 292.312 280.875 159.188 102.938 81 21.9375 35.625
internal_count=12807 5462 532 4930 430 4014 7345 3394 3968 228 3837 2522 1315 340 975 670 564 2064 2515 501 439 154 62 285 177 3951 3645 193 55 3452 138 212 2014 102 754 158 74 159 95 61 489 403 86 66 202 128 99 458 376 127 238 207 62 1260 1218 171 1047 998 585 395 300 95 128
is_linear=0
shrinkage=1


Tree=1
num_leaves=64
num_cat=0
split_feature=7 6 6 2 5 5 7 7 3 2 6 2 6 2 5 3 7 7 4 6 4 5 3 5 6 5 2 5 7 5 6 7 4 7 4 2 6 2 5 7 6 2 7 3 6 6 3 3 4 2 7 2 5 6 7 4 6 2 3 6 2 7 3
split_gain=245.935 143.724 76.5363 59.219 63.3976 43.7384 41.2822 35.2081 31.1892 30.1634 28.6175 35.5586 26.7147 27.3845 25.2415 20.4267 20.6718 18.7383 17.168 16.9842 19.8216 19.6724 16.9305 16.6058 16.4091 30.8392 26.2271 15.682 15.3541 14.8892 14.7119 53.0521 45.6843 14.0786 14.0282 19.7414 13.6844 13.6836 18.3187 32.6115 15.1029 13.5961 13.2652 15.4037 12.7893 12.4503 13.2008 13.12 12.0616 24.5313 11.802 17.8279 24.0809 13.8515 13.8103 12.3777 12.3518 11.5605 11.3872 18.9378 17.1597 11.2538 11.122
threshold=0.3743133544921875 4.5763669305204404 1.7498354994436383 162.98070000000004 116.30629500000002 116.30606250000001 0.41240692138671881 0.31228828430175787 65.584287000000003 49.895675500000003 5.220793068057632 134.14034500000002 4.2281433323428637 39.127755000000008 116.31043700000002 52.864760000000011 0.41669273376464849 0.47929191589355474 110.793772 5.4348079991837652 95.410010000000014 96.573042500000014 59.972902500000011 118.70511750000001 3.098138145690819 102.23831700000001 116.33242500000001 80.467152000000013 0.39524459838867193 116.30629500000002 2.525943562132356 0.12413215637207027 112.46633550000001 0.39897727966308599 67.563750000000013 51.025129500000013 1.619790220329675 60.735187500000002 107.07259300000001 0.42788887023925787 4.9752414226797521 115.65928500000001 0.42788887023925787 88.31213750000002 4.855914700970688 4.4710080157136858 106.31269500000002 75.83960500000002 84.551955000000007 144.86489000000003 0.21196174621582028 81.895712000000017 86.50163000000002 4.0044784577046153 0.30579185485839849 93.247205000000022 4.1998412027704264 57.291273000000004 105.96239500000001 3.4226410907131508 56.699579000000007 0.38212013244628912 27.900951500000005
decision_type=2 2 2 2 2 2 2 2 2 2 2 2 2 2 2 2 2 2 2 2 2 2 2 2 2 2 2 2 2 2 2 2 2 2 2 2 2 2 2 2 2 2 2 2 2 2 2 2 2 2 2 2 2 2 2 2 2 2 2 2 2 2 2
left_child=7 2 -2 12 5 42 9 30 -8 -3 11 24 13 -4 -6 -14 34 23 -13 20 22 33 28 -15 -9 62 -27 -19 -11 -24 31 -1 36 61 35 -17 57 -10 40 44 48 -18 -5 -44 -40 46 47 -36 49 -39 -32 52 54 -54 55 56 58 -33 59 60 -52 -21 -26
right_child=1 6 3 4 14 -7 8 10 37 19 -12 18 15 17 -16 16 41 27 -20 21 -22 -23 29 -25 25 26 -28 -29 -30 -31 50 32 -34 -35 45 -37 -38 38 39 -41 -42 -43 43 -45 -46 -47 -48 -49 -50 -51 51 -53 53 -55 -56 -57 -58 -59 -60 -61 -62 -63 -64
leaf_value=-0.082878071474245155 -0.082687329335873375 0.026516830949970843 0.009791436220696198 -0.087438255302027382 -0.15824096816885699 0.065591782980287602 0.042738166610563018 -0.080933184214756565 0.034960453607487806 -0.048766047127289484 -0.08134179367146506 -0.078084954934915976 0.051075758434463936 -0.060538655563348177 -0.076193301443339592 -0.057135444003107654 0.015037276944701989 -0.011730741649713803 -0.014064656625521595 0.0063878656571872503 -0.013488688150787735 0.051131391723136847 -0.06057227956438193 0.011770506112604138 -0.0075320439818997668 0.02947677361262685 -0.038650945525250002 -0.044927294435903743 0.02418655325809466 -0.12478963602435794 -0.091862269261284921 -0.04971625545453276 0.066768716248928342 0.012949738326586569 -0.092289255834522355 0.067215152161627822 -0.040736551108173473 0.067314182095664019 -0.08662406888201446 0.04443714222864778 -0.013698730046848184 -0.038086461231844629 -0.019058822181380979 -0.068201584322849104 0.0038050721519201102 -0.0065822411278990333 -0.10777566192475357 -0.0019223375987759009 -0.074360042827387743 -0.072913639048216586 0.029869970547789532 -0.083864715086382671 0.010800592166394576 -0.054123897290728265 -0.041689534941849161 -0.097257100455259329 -0.083554048416102297 -0.11504931905629855 -0.079586454717003777 -0.062571015542498373 -0.071526209671736576 -0.064428942973326853 -0.056324407254515763
leaf_weight=209.41389368474483 204.34342867136002 18.620217382907867 20.915040463209152 39.666058853268623 26.294526785612106 6.8857380747795096 30.871638655662537 46.439504384994507 14.025280147790907 23.216182723641396 193.87969972193241 242.0724668353796 9.4476756006479246 236.94470879435539 14.567058429121969 7.2362351417541486 34.489257842302322 45.338146284222603 10.945372253656386 7.3384585976600674 33.466926097869873 9.1945749819278699 86.520615503191948 8.21517066657543 12.02647130191326 20.014637276530266 48.020740196108818 165.21971297264099 10.46286581456661 10.077543273568152 163.15793325006962 14.01585526764393 8.9980481415986997 13.776640549302099 7.5052815526723888 5.710417702794075 89.579297825694084 5.349081411957739 8.7330884486436826 26.749546483159065 64.843696683645248 18.507060214877129 24.296739086508751 46.393241792917252 7.079596981406211 8.0857429504394513 16.236625209450722 8.6408824324607831 24.333900958299637 7.4802809804677963 11.836381524801256 465.82935738563538 13.082522630691527 22.081057891249657 31.614787325263023 58.037163510918617 124.59958477318287 13.098913654685019 58.912755593657494 75.794521525502205 6.4443863481283179 23.819282487034798 404.70806911587715
leaf_count=647 646 89 94 124 49 38 153 149 68 85 611 767 48 836 47 26 157 187 44 32 140 46 300 38 51 96 182 609 49 25 488 50 48 62 23 30 329 28 27 134 270 71 99 157 31 34 46 37 81 25 55 1442 57 77 119 169 386 35 186 257 21 81 1419
internal_value=-0.0615242 -0.0447847 -0.055558 -0.0481723 -0.0753597 -0.0566679 -0.0206325 -0.0713832 -0.00324199 -0.0345648 -0.064141 -0.0598886 -0.0409175 -0.046152 -0.128991 -0.0193832 -0.0256388 -0.0487195 -0.0753155 -0.039785 -0.0478115 -0.0155044 -0.0566287 -0.0581156 -0.0525407 -0.0498208 -0.0186091 -0.0377793 -0.0261023 -0.0672717 -0.0765669 -0.0674653 -0.0417862 -0.0291396 -0.0475899 -0.00228777 -0.0501567 -0.0121924 -0.0167669 0.0107869 -0.0282637 -0.00351428 -0.0642964 -0.0513108 -0.0461375 -0.0620829 -0.075941 -0.0439279 -0.0536771 -0.014447 -0.0795241 -0.0772056 -0.0694968 -0.0299689 -0.0732816 -0.0762575 -0.071867 -0.0812781 -0.0623486 -0.0515537 -0.00587449 -0.0477497 -0.0549163
internal_weight=3725.5 1380.9 954.939 750.595 158.103 117.242 425.959 2344.6 189.466 236.493 978.107 784.227 592.492 476.633 40.8616 115.859 106.412 455.718 253.018 217.873 163.744 54.129 130.277 245.16 531.209 484.77 68.0354 210.558 33.679 96.5982 1366.5 335.106 125.692 44.9344 53.4152 12.9467 116.694 158.594 144.569 42.5622 102.007 52.9963 110.356 70.69 15.8127 40.4685 32.3828 16.1462 37.1633 12.8294 1031.39 868.233 402.403 35.1636 367.24 335.625 277.588 27.1148 152.988 94.0753 18.2808 31.1577 416.735
internal_count=12807 5122 3396 2750 514 418 1726 7685 817 909 3319 2708 2236 1764 96 472 424 1670 811 820 599 221 459 874 1897 1748 278 796 134 325 4366 1109 462 175 196 56 414 664 596 192 404 228 380 256 58 140 106 60 134 53 3257 2769 1327 134 1193 1074 905 85 519 333 76 113 1470
is_linear=0
shrinkage=0.05


Tree=2
num_leaves=64
num_cat=0
split_feature=7 6 6 2 5 2 5 7 5 7 0 6 2 7 6 2 0 7 0 3 5 2 3 0 6 6 5 2 0 7 3 7 0 3 7 6 5 6 7 7 6 7 6 7 6 5 6 6 3 0 5 0 7 0 2 0 3 5 0 6 3 5 0
split_gain=204.544 122.451 63.4903 49.817 42.3684 38.7031 38.3403 36.7672 35.0582 28.8755 28.7702 32.1414 27.0755 23.8123 23.4634 29.4632 22.0036 21.5936 20.3858 23.189 23.9076 18.0266 16.1704 16.0571 16.9432 15.9572 15.8428 19.5405 15.468 15.1292 14.1671 25.904 20.2136 15.1254 13.8383 17.9326 17.4907 13.6073 14.6762 13.2359 13.9829 12.8565 18.949 34.1981 18.1033 12.8269 21.9762 12.628 13.9559 12.0533 12.0422 11.9992 11.8719 11.864 11.8154 11.6591 12.8641 26.9372 11.2567 16.1253 12.0174 10.7769 10.6177
threshold=0.3743133544921875 4.5763669305204404 1.7769208672150485 153.73173000000003 116.30629500000002 176.86551500000002 116.30606250000001 0.43144989013671875 105.16467000000002 0.31228828430175787 164.55357500000002 4.0579271577849747 49.895675500000003 0.45466041564941412 5.220793068057632 134.14034500000002 26.000181000000005 0.46028518676757818 35.790107000000013 99.814090000000007 116.30629500000002 39.127755000000008 58.016673000000004 158.56496000000001 3.098138145690819 4.2162904192403916 102.23831700000001 116.33242500000001 61.178810000000006 0.6197490692138673 73.597985000000008 0.39524459838867193 63.531537500000006 69.020840000000007 0.41011428833007818 5.2948900280353071 104.04679000000002 4.9752414226797521 0.39524459838867193 0.69516372680664074 4.286808630712863 0.0081520080566405521 2.525943562132356 0.12413215637207027 1.619790220329675 112.38436500000002 1.7769208672150485 1.8334351658726187 113.62709000000001 178.33433500000004 93.701897000000017 54.518358500000012 0.51412200927734386 76.359225000000009 83.391287500000018 27.846792000000004 99.814090000000007 75.478302500000026 129.35374500000003 3.8830170593399105 100.31346200000002 73.254340000000028 110.88842500000001
decision_type=2 2 2 2 2 2 2 2 2 2 2 2 2 2 2 2 2 2 2 2 2 2 2 2 2 2 2 2 2 2 2 2 2 2 2 2 2 2 2 2 2 2 2 2 2 2 2 2 2 2 2 2 2 2 2 2 2 2 2 2 2 2 2
left_child=9 2 -2 10 6 -6 39 12 28 41 11 21 -3 22 15 16 -11 49 -14 20 30 -4 -13 24 -18 52 -26 -28 -9 55 31 -20 -33 -34 35 36 -21 38 -32 40 -5 -1 43 -43 53 47 -47 -46 -49 -12 54 -42 -19 -45 -39 -23 -57 -58 -17 -60 -61 -24 -59
right_child=1 7 3 4 5 -7 -8 8 -10 14 17 13 18 -15 -16 58 23 25 19 34 -22 29 61 -25 26 -27 27 -29 -30 -31 37 32 33 -35 -36 -37 -38 50 -40 -41 51 42 -44 44 45 46 -48 48 -50 -51 -52 -53 -54 -55 -56 56 57 62 59 60 -62 -63 -64
leaf_value=-0.10823047028576589 -0.075023369659711167 0.022704781276124079 0.015481685069229551 -0.070031872805565498 -0.029611400301978508 -0.13264702967227149 0.064601908684993728 0.041448965350208859 0.051201592550817313 0.0042260345533116214 -0.079704937932368547 0.029139969453216265 0.018412132653244012 0.04871882693365169 -0.07439201146444073 -0.077488653571950908 -0.077242573843329915 -0.077669330280570603 -0.048799376121338549 -0.061547955131841962 -0.095713155042143089 0.0034038671219818089 0.0014543882824097183 -0.077157697723351459 -0.048469768658619843 0.033587720035490799 0.023732584945300225 -0.039495587106769425 -0.020150804522346851 -0.010970691093905482 -0.011558514787183758 0.039335612638041632 -0.076294736932809915 0.015391243248331909 0.041356069404416454 0.048646451462605177 0.0076937989650631422 -0.0060629435546373268 -0.08971055708576349 0.0075462647501178164 -0.078141259671538163 -0.07215388817901329 -0.07280515138634662 -0.047472489296832787 0.018670265665203255 -0.078762048700186063 0.043795851021750154 -0.033982721326497475 -0.090888046420934232 -0.026699707061313183 -0.011748853769892039 -0.016503205983816747 -0.0012170946718600471 -0.11358386013610422 -0.067562038474474076 -0.057142882662144984 0.050570464311068243 -0.0071776839385346188 0.0057290835962970181 -0.0043523192785826182 -0.068035159957378188 -0.037800643315974901 -0.049807985712935536
leaf_weight=21.872399136424065 220.33884257078171 24.085707053542137 14.563749894499777 112.4055822789669 12.227253183722494 35.795521914958954 6.6477173566818228 11.833149656653402 30.052163287997246 18.970998212695122 71.859184250235558 15.851392567157744 18.442205637693405 15.938720941543577 201.1915494799614 158.04504364728928 44.053250014781952 12.336354613304144 44.695917278528214 23.061205312609673 19.867951348423958 11.632764980196951 25.026443153619766 51.302351236343384 372.10640054941177 8.9377588182687742 17.526565179228783 40.355208426713943 73.435328796505928 35.866225615143776 7.4903887063264838 21.609299898147583 9.3900239467620867 8.6345378309488279 11.494616866111754 7.889565408229827 15.087020143866537 10.121939614415167 30.337498068809509 7.3463830053806296 11.245199784636496 195.47430941462517 1069.1479507982731 16.690129235386852 8.9583548605442029 5.0961146205663708 12.958876952528952 59.816536918282509 13.141470834612845 12.606935352087019 28.266735583543777 26.509192675352097 8.6301424354314786 11.435836195945738 34.192804709076881 150.73415642976761 8.5750158876180631 17.934140995144844 9.5188172906637174 8.1053357422351819 86.114591330289841 58.015013188123703 78.707730546593666
leaf_count=55 673 116 67 359 46 69 38 59 157 83 223 76 85 79 611 471 134 39 156 77 53 50 109 157 1291 43 84 148 295 144 30 106 31 39 56 39 67 42 90 31 35 592 3257 57 39 16 65 219 38 48 116 105 36 28 112 518 42 74 40 32 268 215 277
internal_value=-0.0567732 -0.0416312 -0.0513937 -0.0445375 -0.0651038 -0.106413 -0.053019 -0.0193873 0.00476419 -0.065587 -0.0365631 -0.0306699 -0.0282385 -0.0079959 -0.0591171 -0.0553047 -0.0486755 -0.0588666 -0.0324611 -0.0359086 -0.0434656 -0.0388573 -0.0171367 -0.0505859 -0.0477102 -0.0223534 -0.0446845 -0.0203501 -0.0116023 -0.0414652 -0.0381352 -0.0227041 0.0067241 -0.0323732 -0.00771951 -0.0199726 -0.0341639 -0.0499213 -0.0742355 -0.0579833 -0.0611892 -0.070194 -0.0695967 -0.0589953 -0.0389154 -0.0289454 0.00920325 -0.0373537 -0.0442327 -0.0717937 -0.0372493 -0.0348622 -0.0462004 -0.0743529 -0.053515 -0.0455526 -0.0477777 -0.034361 -0.0690885 -0.0562911 -0.0625568 -0.0259702 -0.0418969
internal_weight=3831.6 1409.72 979.731 759.393 212.177 48.0228 164.154 429.988 115.321 2421.88 547.216 432.845 314.667 114.832 1007.29 806.099 544.315 114.37 290.582 272.14 214.607 318.014 98.8928 525.344 474.041 29.9043 429.988 57.8818 85.2685 303.45 194.739 84.3298 39.6339 18.0246 57.5324 46.0378 38.1482 110.409 37.8279 157.506 150.16 1414.59 1392.72 323.572 128.097 99.9714 18.055 81.9164 72.958 84.4661 72.5815 37.7544 20.9665 28.126 44.3147 267.584 255.951 105.217 261.784 103.739 94.2199 83.0415 96.6419
internal_count=12807 5122 3396 2723 683 115 568 1726 511 7685 2040 1651 1215 479 3319 2708 1897 389 1099 1014 775 1172 400 1814 1657 118 1523 232 354 1105 722 332 176 70 239 183 144 390 120 530 499 4366 4311 1054 462 377 81 296 257 271 270 140 75 85 154 961 911 393 811 340 300 324 351
is_linear=0
shrinkage=0.05


Tree=3
num_leaves=64
num_cat=0
split_feature=7 6 6 7 2 5 3 5 1 7 6 2 6 5 7 6 6 7 5 1 3 7 5 5 6 3 1 3 7 7 5 6 6 6 7 6 3 7 5 5 5 5 1 5 2 3 1 3 7 7 1 7 7 5 3 7 2 7 3 7 3 5 2
split_gain=172.316 95.5955 50.0227 43.2766 38.5583 43.2773 36.4717 34.0799 28.9672 20.7743 27.5111 28.4573 21.1674 18.3507 32.4044 17.5439 17.3525 25.2954 34.9618 37.2954 22.6453 25.344 17.1561 15.5933 14.6295 19.2379 21.3004 16.5345 19.1325 16.5217 27.3758 24.9691 13.7824 12.6883 34.0849 15.3298 12.2121 12.0576 12.0376 11.8101 13.6234 24.6922 19.0716 11.5611 12.4109 12.2216 11.5661 11.3364 10.8716 17.948 10.5749 10.5391 12.6285 10.4148 10.702 10.3861 10.2308 10.0578 9.2088 9.17717 12.5023 9.02155 9.01875
threshold=0.36752128601074224 4.5763669305204404 1.7498354994436383 0.40146064758300787 162.98070000000004 116.30629500000002 62.521386500000006 116.30606250000001 44.632896500000008 0.28533744812011724 4.9165751777761768 131.56295000000003 4.0044784577046153 74.482880000000009 0.32596206665039068 2.7423600367872134 5.2526294717153714 0.43144989013671875 109.17243500000002 86.272650000000013 99.814090000000007 0.41011428833007818 116.31043700000002 98.442553000000018 4.3019339546157225 116.95556500000002 106.04848500000001 71.776183000000017 0.41240692138671881 0.47570037841796881 117.72222500000002 4.1075367737158084 4.1894500642894013 2.525943562132356 0.12413215637207027 1.619790220329675 116.29370500000002 0.38297462463378912 104.74692500000002 116.30629500000002 101.92116000000001 104.93694750000002 77.284507000000019 107.32151500000002 135.05732500000002 69.876882000000009 94.484825000000015 104.16401700000002 0.41669273376464849 0.42624092102050787 74.514220000000009 0.47929191589355474 0.5181407928466798 78.37064500000001 43.569328500000005 0.37346458435058599 71.380745000000005 0.46930885314941412 124.40962000000002 0.42788887023925787 89.350777000000008 112.38436500000002 177.25505500000003
decision_type=2 2 2 2 2 2 2 2 2 2 2 2 2 2 2 2 2 2 2 2 2 2 2 2 2 2 2 2 2 2 2 2 2 2 2 2 2 2 2 2 2 2 2 2 2 2 2 2 2 2 2 2 2 2 2 2 2 2 2 2 2 2 2
left_child=9 2 51 39 8 7 -5 59 -4 33 11 12 -11 32 61 -13 17 20 19 -19 -8 -22 -7 -16 25 29 -27 37 38 30 36 53 50 34 -1 -36 -10 -26 -29 40 42 -42 -3 44 45 -18 -47 -25 -48 -50 -14 -2 -53 -31 -55 -43 -34 -21 -54 -6 -61 -15 -41
right_child=1 3 4 6 5 22 16 -9 24 10 -12 15 13 14 23 -17 43 18 -20 57 21 -23 -24 47 27 26 -28 28 -30 31 -32 -33 56 -35 35 -37 -38 -39 -40 62 41 55 -44 -45 -46 46 48 -49 49 -51 -52 52 58 54 -56 -57 -58 -59 -60 60 -62 -63 -64
leaf_value=-0.069700784592489184 -0.0044050502793826852 -0.015728344845161505 0.025467184103590852 0.040504885498385546 -0.072076016518925312 -0.12833900579180393 -0.062689554497188202 0.063688424522998194 -0.052925616841822912 -0.056837397123469614 -0.068403741068106816 0.018884019824352505 -0.041941433069291226 -0.047431536715680039 -0.016821953070027082 -0.067760566624337104 -0.040638823158453415 0.066876655069589563 0.05071034267465524 -0.066770083744023573 -0.057030558152095415 0.06663688878286915 -0.063419039503939748 0.067836481348345593 -0.035067431654312753 0.032360640494361673 -0.033967611621200829 -0.069809752507946854 -0.0058599607972734903 -0.013861607758572798 0.045168247875301208 0.067243540291130152 -0.049548651652487605 -0.069898481784491609 -0.069053440185802423 -0.026617512746757433 -0.10068510219203819 0.053634123084840238 0.0036857904711642842 -0.046469680660618046 0.068371129155940721 -0.061398257264710335 -0.05241307147896454 0.066630397439731828 -0.031465639747570814 0.067185625500796417 0.067353969095657357 -0.0033894833608790805 -0.070992204593839564 0.028341870540587361 0.019325533336464456 -0.10914296560198643 -0.069657779645543996 0.01320199337260794 -0.046102572291602549 -0.012485352251316886 -0.085167014648102807 -0.017132486567989713 -0.016775716320272784 -0.016184749413812923 -0.059014215861869716 0.017287942116096255 -0.12020587152331984
leaf_weight=224.30700966715813 6.0730208754539481 51.561721324920654 18.08547805249691 35.028537660837173 46.31129002571106 29.266068577766418 52.198042184114456 6.411889135837554 262.57003407180309 293.84488888084888 367.6234709918499 5.9724331498146048 17.39280237257481 100.42939150333405 43.27792052924633 268.09844508767128 8.3470521718263608 8.8552166819572431 20.707017958164215 24.441397503018379 8.3404506891965884 8.2318419665098173 15.601648956537245 11.94988536834717 5.7635583579540279 16.965752080082893 42.238916844129562 30.060429245233536 38.677531182765961 38.302446559071541 6.9421201944351187 5.8997295945882788 155.41063918173313 729.58331848680973 27.794471621513367 90.825793370604515 14.103700578212736 11.42739301919937 6.8388044983148566 10.25124228000641 8.0125907361507398 14.797183603048323 113.23225834965706 6.9036739468574515 22.654439941048622 11.784030288457869 5.7276257872581509 10.490910366177557 7.5604131966829327 11.410294011235235 11.836076050996779 19.888210877776146 184.77586160600185 8.0266976952552778 145.58932241797447 40.71457627415657 23.165747404098511 17.520798981189728 8.6162782311439496 26.512678563594818 47.685111001133919 5.6896231174468985 6.9640738666057578
leaf_count=647 24 204 86 178 137 49 168 38 880 936 1094 26 59 329 163 792 32 47 112 81 28 44 47 62 21 80 154 92 162 153 35 31 512 2122 81 339 38 59 28 34 41 46 379 37 87 62 30 44 25 53 50 46 545 34 501 163 65 69 32 104 152 24 14
internal_value=-0.0525981 -0.0395452 -0.0481367 -0.0214574 -0.0424836 -0.0635559 -0.00680117 -0.0486348 -0.0369272 -0.0610054 -0.0567937 -0.0522894 -0.0467619 -0.0389634 -0.0268748 -0.0658724 -0.0145198 -0.0248708 -0.00405263 -0.0263674 -0.0465228 0.00439793 -0.105765 0.000716086 -0.0387087 -0.0418564 -0.0149605 -0.0203645 -0.030432 -0.0451639 -0.0528995 -0.0340731 -0.0489597 -0.06617 -0.0582375 -0.0365609 -0.0553602 0.0238954 -0.0561883 -0.0363631 -0.0333519 -0.0136802 -0.0409349 0.00500216 -0.00130248 0.0139404 0.026428 0.0345389 0.00698173 -0.0112458 -0.0171317 -0.069354 -0.0712034 -0.0371877 -0.0430038 -0.0255235 -0.0541692 -0.0460445 -0.0673017 -0.0546111 -0.0437102 -0.0439616 -0.076298
internal_weight=3925.57 1537.88 1042.63 495.244 823.281 171.789 249.711 126.921 651.492 2387.69 1315.18 947.559 673.488 379.643 171.838 274.071 214.682 140.295 71.5244 50.8174 68.7703 16.5723 44.8677 65.7187 633.406 540.639 59.2047 92.7677 75.5768 481.434 283.616 197.818 207.805 1072.51 342.927 118.62 276.674 17.191 36.8992 245.534 228.318 63.5244 164.794 74.3875 67.4839 44.8294 36.4824 22.4408 24.6983 18.9707 29.2289 219.353 213.28 191.918 153.616 55.5118 178.576 41.9622 193.392 120.509 74.1978 106.119 17.2153
internal_count=12807 5462 3528 1934 2881 527 1053 431 2354 7345 4156 3062 2244 1308 622 818 875 549 309 197 240 72 96 269 2268 1906 234 362 282 1672 953 719 686 3189 1067 420 918 80 120 881 833 250 583 326 289 202 170 106 108 78 109 647 623 688 535 209 577 150 577 393 256 353 48
is_linear=0
shrinkage=0.05


Tree=4
num_leaves=64
num_cat=0
split_feature=7 7 5 2 5 1 7 3 7 7 1 3 5 2 5 2 5 7 7 3 1 2 1 7 1 2 5 7 1 4 7 2 1 7 4 1 2 3 7 3 1 7 4 3 2 7 4 7 2 3 1 3 4 5 1 1 4 1 1 7 5 5 4
split_gain=146.822 32.7892 34.9378 110.821 25.3535 25.2124 21.1554 19.6487 17.1769 16.7984 24.3438 20.3066 22.1847 14.5842 20.3518 14.3755 15.538 13.4941 23.9995 17.0515 12.8866 12.8383 12.5673 12.2164 12.0532 10.1709 10.0591 10.0113 10.8526 11.9981 20.807 11.0233 10.6924 15.6595 13.4859 11.276 9.90816 11.1868 9.8067 9.7697 9.58406 11.9512 9.57837 9.55953 9.12082 8.96795 14.1735 8.9265 8.90055 8.8358 13.5372 8.7042 8.66065 8.36166 8.34674 9.87842 8.26009 13.0808 12.3958 8.90627 7.56881 7.53274 7.44621
threshold=0.3743133544921875 0.49487304687500006 116.30629500000002 176.86551500000002 116.30606250000001 44.632896500000008 0.31228828430175787 59.972902500000011 0.39618873596191412 0.42624092102050787 67.035795000000022 87.246875000000017 107.78673500000001 153.37545000000003 99.888777500000018 136.96952000000002 98.970133000000018 0.35667419433593756 0.36656761169433599 106.47973500000002 145.54633500000003 123.74949700000001 152.26429500000003 0.39416313171386724 134.05742500000002 108.43923200000002 84.81116200000001 0.0081520080566405521 74.514220000000009 84.784567500000023 0.23888587951660153 75.715770500000005 139.62903500000002 0.068105697631835924 114.59801250000002 146.38324500000002 70.943113000000011 116.29370500000002 0.48376655578613287 27.900951500000005 88.003025000000022 0.47348403930664068 18.786869000000003 115.34942500000001 177.47979500000005 0.35931205749511724 92.648525000000021 0.38297462463378912 43.153620000000011 34.854258500000007 80.802150000000012 84.389005000000012 67.822075000000012 120.27366750000002 104.61372500000002 128.44368500000002 96.18299500000002 134.80809500000004 103.65056000000001 0.34689712524414068 108.56231000000001 105.16467000000002 55.592067000000007
decision_type=2 2 2 2 2 2 2 2 2 2 2 2 2 2 2 2 2 2 2 2 2 2 2 2 2 2 2 2 2 2 2 2 2 2 2 2 2 2 2 2 2 2 2 2 2 2 2 2 2 2 2 2 2 2 2 2 2 2 2 2 2 2 2
left_child=6 2 4 53 5 51 27 8 21 13 62 12 40 14 48 16 39 25 -19 60 -16 26 36 -15 49 -18 -7 -1 29 42 -31 -32 -30 -34 -35 -36 -13 38 -38 -8 -12 -42 -29 -37 -14 -17 -47 -23 -9 -10 -51 -2 -52 -4 -54 -56 58 59 -41 -58 -20 -49 -11
right_child=1 -3 3 -5 -6 7 15 9 24 10 11 22 44 23 20 45 17 18 19 -21 -22 47 -24 -25 -26 -27 -28 28 32 30 31 -33 33 34 35 43 37 -39 -40 56 41 -43 -44 -45 -46 46 -48 61 -50 50 52 -53 54 -55 55 -57 57 -59 -60 -61 -62 -63 -64
leaf_value=-0.092374575591930755 0.0013607832411417782 -0.046766151562225855 -0.01453667260206412 -0.10938800672000713 0.063697217751119029 -0.02158354368602081 -0.01273551906881581 -0.011275862259496955 -0.024004472036893862 -0.015597478887288539 0.014837463985770816 -0.0159971001149838 0.041426844495307619 -0.027099375969006606 0.0023855873007593786 -0.064704999271246594 -0.01519396407232828 0.040171460093995394 0.024621568006645882 -0.11697366060412864 -0.050089783302084558 -0.012434614471575043 0.020172546507095962 -0.067244654475437246 -0.064168585132312578 -0.048254620961037484 0.067511734007030005 0.0031853290001717209 -0.065872569248543483 -0.049543073351831467 0.044026449104951022 -0.045122012279080553 -0.074030789307001688 -0.050064248384533543 -0.054243586892719686 -0.014447438099496482 -0.045430005518279533 -0.090398053989823757 0.012127396902849951 -0.050137062639386991 -0.04760700371604322 0.024509652119940158 -0.057629923314996147 0.06728677394383456 -0.018512388856831073 -0.067612776614203327 -0.024575248714466594 -0.10247048807160256 -0.042902655520742655 0.066026259472737089 -0.045086350751027654 0.065979388307141687 0.066347374276333582 0.037129713635273502 -0.016117276440710034 0.065962797460227457 -0.038346913369499441 -0.069447864385653521 -0.069902552973344523 0.0092236318831905948 -0.052403022054641493 -0.032544164510771904 0.054929309492157297
leaf_weight=23.443028196692467 16.133431211113933 490.57456021010876 37.71076112985611 52.018772080540657 7.5255626142024985 18.292993053793911 16.368112742900848 24.36057211458683 13.014664113521574 5.3824748992919949 11.178525403141974 33.602135390043259 23.627456620335579 26.050298765301704 51.791505724191666 231.68462283909321 30.141726955771446 15.622471034526823 6.658610016107561 5.5893280357122412 15.11354188621044 7.2920693457126644 9.0825629383325559 69.528058901429176 5.6067998409271231 101.94794635474682 3.8316146582365027 6.5540701001882544 685.39332218468189 55.330698892474174 10.784300923347471 5.1109154969453803 55.071333646774292 95.67841312289238 8.2959328442811984 8.8695022165775281 110.91389405727386 13.026428982615469 7.9295769184827796 409.30267901718616 38.54260416328907 6.7511440813541403 533.32646481692791 5.9957069754600516 8.6777516305446607 36.381621271371841 40.344590276479721 11.238361656665804 256.24601131677628 12.97282327711582 6.667058899998664 7.697972744703292 6.8332163989543941 9.883345812559126 16.033870503306392 4.7520796656608573 23.317433312535286 18.086220115423203 98.391542077064514 17.021873012185097 6.1215526014566422 5.8592898845672599 12.283552974462507
leaf_count=55 73 1596 149 97 45 71 63 98 51 22 49 132 119 92 215 658 117 73 29 13 52 28 39 208 18 330 20 25 1944 169 47 16 147 294 25 34 382 35 34 1299 133 30 1578 32 35 102 138 28 873 71 25 42 37 48 65 26 78 52 279 68 20 21 63
internal_value=-0.048893 -0.0362365 -0.0308971 -0.0589427 -0.0276779 -0.0284772 -0.0561273 -0.029922 -0.0104715 -0.0329412 -0.023378 -0.0271898 -0.00772047 -0.0390059 -0.0342486 -0.050714 -0.0469712 -0.0334805 -0.00538566 -0.0441301 -0.00946836 -0.0337339 -0.0370918 -0.0563029 0.0059527 -0.0407105 -0.00615372 -0.0599575 -0.0594406 -0.0543469 -0.0350585 0.0153618 -0.0630631 -0.0519907 -0.0417772 -0.00754328 -0.0402349 -0.046411 -0.0415896 -0.0508177 -0.0266249 -0.0368578 -0.0568916 0.0185191 0.0253261 -0.0597985 -0.0449826 -0.0587526 -0.040157 0.0124755 0.0225218 0.0222338 0.00606106 -0.00380768 0.0184077 0.00264785 -0.0519188 -0.0341152 -0.0539676 -0.0182737 -0.0122723 -0.078507 0.0334412
internal_weight=4008.86 1458.03 967.453 99.6129 867.84 860.314 2550.83 836.483 112.395 724.088 280.998 263.332 88.7775 443.09 347.512 1056.98 748.569 166.082 33.992 18.3695 66.905 46.5143 174.555 95.5784 65.8805 132.09 22.1246 1493.85 1470.41 611.106 71.2259 15.8952 859.304 173.911 118.84 23.1611 165.472 131.87 118.843 582.488 56.4723 45.2937 539.881 14.8652 32.3052 308.411 76.7262 24.3897 280.607 60.2737 47.259 23.8314 34.2862 47.5941 27.6192 20.786 566.12 58.4255 507.694 40.3393 12.7802 17.0977 17.666
internal_count=12807 5122 3526 294 3232 3187 7685 3072 461 2611 1073 988 366 1538 1238 3319 2421 582 135 62 267 168 622 300 293 447 91 4366 4311 1835 232 63 2476 532 385 91 583 451 416 1839 212 163 1603 66 154 898 240 77 971 275 224 115 153 197 128 91 1776 198 1578 146 49 49 85
is_linear=0
shrinkage=0.05


Tree=5
num_leaves=64
num_cat=0
split_feature=6 6 6 4 4 2 2 2 6 4 6 3 6 0 5 2 5 6 6 0 2 0 4 2 6 3 2 4 3 6 6 4 4 5 5 2 2 3 2 6 6 5 6 3 3 6 4 6 3 6 5 2 0 0 6 6 5 4 3 5 4 5 6
split_gain=47.1628 24.9084 30.4706 17.5667 16.9762 14.0945 75.7484 48.657 16.0768 13.7541 11.6756 9.92181 9.67116 8.56889 12.5061 8.21793 7.40267 7.34836 12.5774 10.9143 10.8897 8.55372 8.40277 8.36061 7.24316 15.1066 11.6135 14.3437 7.48039 6.73201 6.18681 7.36701 6.0656 6.79796 40.7429 19.2516 14.0958 12.1908 8.57209 11.2894 10.8827 10.4486 10.3879 26.4427 10.3605 19.1004 9.45253 8.49548 12.6421 9.08062 10.3 11.3333 8.40747 7.6925 7.67276 9.78976 8.34052 7.19676 6.88775 6.60231 6.38288 6.26729 5.96925
threshold=1.7229615739820081 4.5763669305204404 2.6368663491365711 113.76930750000001 116.12775500000002 177.46890000000005 177.46855000000002 177.47979500000005 4.0044784577046153 99.718633000000025 3.700364354453693 117.86274800000001 1.9862094323215844 55.634085000000006 91.695327000000006 170.32503000000003 116.31043700000002 3.1620431896412478 3.0343783691695592 40.167488500000012 57.927482500000004 27.154432000000003 113.25640500000002 127.70407300000001 1.9862094323215844 98.460010000000025 67.373455000000021 87.958455000000015 94.377753000000013 2.1915072817119401 3.4453448905834807 90.739360000000019 109.95485250000002 116.29219500000001 116.07115250000001 176.86551500000002 177.46890000000005 64.423665000000014 118.37175000000001 4.728863466797474 4.6952463714865198 93.701897000000017 4.9752414226797521 52.864760000000011 61.452532500000011 5.2526294717153714 67.563750000000013 5.2948900280353071 110.11845500000001 5.1299439925967656 69.61872750000002 89.263695000000013 72.91370000000002 74.830040000000011 4.855914700970688 4.8811859187987769 110.86399500000002 95.887557500000014 69.318185000000014 58.961117000000009 48.876380000000005 87.880680000000012 4.8209137836798792
decision_type=2 2 2 2 2 2 2 2 2 2 2 2 2 2 2 2 2 2 2 2 2 2 2 2 2 2 2 2 2 2 2 2 2 2 2 2 2 2 2 2 2 2 2 2 2 2 2 2 2 2 2 2 2 2 2 2 2 2 2 2 2 2 2
left_child=-1 2 3 9 -5 6 8 -7 10 15 17 32 -6 29 -15 24 -16 18 23 21 -20 -19 -21 -4 25 28 -26 -28 -2 -11 31 -23 33 34 38 -35 -37 -36 39 40 57 42 43 -41 45 60 58 49 53 50 52 -52 -46 -49 -40 -56 -57 -3 -45 -42 -44 -61 -60
right_child=1 11 5 4 12 7 -8 -9 -10 13 -12 -13 -14 14 16 -17 -18 19 20 22 -22 30 -24 -25 26 -27 27 -29 -30 -31 -32 -33 -34 35 37 36 -38 -39 54 41 59 -43 44 46 47 -47 -48 48 -50 -51 51 -53 -54 -55 55 56 -58 -59 62 61 -62 -63 -64
leaf_value=-0.060155333479863619 -0.04665006887399098 -0.032317692883255381 -0.051692703220568015 0.039905817344576343 -0.060314629867828241 0.058219916078776447 -0.12507217358668352 -0.050545863323749586 -0.043210901182650072 -0.10292953850631886 -0.059074582016804836 0.01747007930665076 0.0078942937584649247 0.023493758838961942 -0.055228278877071872 0.017750131030658818 0.0010302377386276476 -0.042783659451749043 -0.044499219644168253 -0.048937124220700741 -0.080692747297933534 0.051916671444994067 0.0013137062416160629 -0.022970698206164104 -0.037305158103493108 0.00034084830623241094 0.008655734359634305 -0.039875959074796651 -0.097564451001370678 -0.049949866402146798 -0.028228365088289971 -0.016517648216252619 0.0082119839756520114 -0.029002601377187232 -0.019046973730558033 -0.10829357068068285 -0.041327849966803956 0.056260792092841565 -0.055171424632220814 -0.082591092018780773 -0.023006250616295052 -0.020311019261730724 0.051817721832699996 -0.034120012768908886 -0.07896281970055169 -0.041542159276699527 -0.047585395819570296 -0.010317861832882393 0.042444902107999047 -0.06466980623404571 0.035975416304227813 -0.043808049229699726 -0.024996677686706811 -0.041031112004773433 0.0095702861062403766 -0.044879357472885628 -0.023323414533205702 0.012557518762937479 -0.020714553828317685 0.071046911288464326 -0.0019147201611823149 0.00043299654158294049 0.046459065869803723
leaf_weight=461.60577328503132 74.76187065243721 83.524168685078621 131.02315174043179 15.257947489619253 11.471068650484087 13.670746013522146 32.371282637119293 41.488032311201096 933.52973406016827 12.927395418286325 391.11188930273056 8.244838818907736 9.5011707395315153 6.2658291310071936 65.090479403734207 8.484367832541464 6.424368053674697 33.558482438325882 30.662908121943474 301.87669342756271 64.494379565119743 7.4175858348608008 8.5548462122678739 31.410618811845779 87.854720950126648 16.878069788217545 40.829567044973373 24.277402445673943 7.9845851361751548 11.183049455285071 16.379853010177612 8.370455861091612 7.1888209432363501 38.791023060679436 8.4722802639007586 19.373171538114548 13.220924049615858 14.694714725017546 108.2830855846405 46.651045605540276 7.9357237517833736 73.596387952566147 8.910645544528963 18.502731978893284 14.981393381953241 30.437086552381516 66.552973538637161 25.791488111019135 5.565822333097457 53.789321005344391 8.7464534193277377 9.0637291073799116 13.92557570338249 97.294403344392776 9.7231982052326185 273.36876341700554 53.687391191720963 10.004533424973486 6.5647585093975049 6.1971245706081373 14.554507106542586 6.3743254542350769 6.6648482233285904
leaf_count=1295 237 282 390 71 36 72 45 127 2965 32 1134 33 38 26 200 35 25 103 95 918 169 33 33 107 288 65 162 80 20 36 55 29 29 135 33 37 43 79 328 126 28 264 44 63 42 100 210 97 26 157 39 29 48 320 39 874 190 39 24 30 58 25 32
internal_value=-0.0451051 -0.0431837 -0.0460552 -0.0334191 -0.000220462 -0.0485207 -0.0492115 -0.023589 -0.0479576 -0.0367329 -0.0522812 -0.0371862 -0.0294136 -0.0523128 -0.0442399 -0.0306523 -0.0501744 -0.0480888 -0.0545949 -0.0436334 -0.06903 -0.0251238 -0.0475523 -0.0461386 -0.0322781 -0.0427696 -0.025445 -0.009441 -0.051563 -0.0783562 -0.00670048 0.0156344 -0.0375738 -0.0378587 -0.0368744 -0.052804 -0.0811307 0.0287204 -0.0383071 -0.0344853 -0.0202849 -0.0377137 -0.0407062 -0.0515921 -0.0351322 -0.0154087 -0.0368784 -0.0397716 -0.0312625 -0.0506636 -0.0345371 -0.00462696 -0.0529653 -0.0345954 -0.0435936 -0.039871 -0.0413409 -0.0275175 -0.0144224 0.0127017 0.0184896 0.0352423 0.0131264
internal_weight=4077.4 3615.79 2445.11 399.192 36.2302 2045.92 1990.76 55.1588 1958.39 362.962 1024.86 1170.68 20.9722 101.891 77.7807 261.071 71.5148 633.749 257.591 376.158 95.1573 65.7264 310.432 162.434 252.586 99.6245 152.962 65.107 82.7465 24.1104 32.1679 15.788 1162.43 1155.24 1083.86 71.3851 32.5941 23.167 1060.69 615.629 114.036 501.593 427.997 144.936 283.06 53.9022 98.2853 229.158 128.652 100.506 46.7172 17.8102 28.907 123.086 445.062 336.779 327.056 93.5287 31.7323 20.5072 23.4652 12.5715 13.2296
internal_count=12824 11529 7626 1351 145 6275 6076 199 6031 1206 3066 3903 74 319 251 887 225 1932 761 1171 264 220 951 497 852 322 530 242 257 68 117 62 3870 3841 3626 215 80 112 3514 2083 404 1679 1415 455 960 202 329 758 443 315 158 68 90 417 1431 1103 1064 321 119 83 102 55 56
is_linear=0
shrinkage=0.05


Tree=6
num_leaves=64
num_cat=0
split_feature=7 1 7 0 3 3 7 7 4 4 4 7 2 2 2 7 7 4 7 2 4 1 4 7 1 7 1 3 7 1 0 7 0 3 1 1 4 3 7 2 7 2 3 7 7 2 3 7 3 1 3 3 1 1 0 1 0 3 0 4 0 7 7
split_gain=146.732 33.7164 22.9897 18.97 29.7528 26.1961 21.5307 19.9503 19.1083 16.1784 15.9819 13.2502 11.2575 100.545 53.202 16.3139 19.0137 26.6066 10.7084 16.0194 20.2938 26.7371 13.9987 12.8852 13.5138 13.3146 16.0269 14.5564 11.3497 11.1015 10.0196 16.1448 9.78284 9.37568 9.28579 9.19276 9.04894 10.9624 22.4184 9.03939 8.84729 8.46475 14.4475 8.3385 9.40685 8.28387 11.1838 12.3305 16.0657 15.9397 8.66781 14.7455 8.45564 8.47968 14.5703 8.10413 8.04675 9.11882 14.0129 8.02408 9.39779 9.36652 8.8175
threshold=0.36752128601074224 100.69983500000002 0.50659751892089855 150.59974500000001 96.911965000000023 78.439768000000015 0.39618873596191412 0.44075584411621099 78.731705000000019 72.740780000000015 87.022475000000014 0.39618873596191412 177.46890000000005 177.46855000000002 177.47979500000005 0.46307373046875006 0.40038108825683599 94.397535000000019 0.30344390869140631 132.90784500000004 77.746430000000018 107.20043250000002 93.729220000000012 0.32699203491210943 78.795260000000013 0.34338951110839849 83.351358000000019 69.318185000000014 0.35072898864746099 125.53953500000001 60.31233000000001 0.43966484069824224 125.56336950000001 75.83960500000002 90.533050000000017 106.04848500000001 74.830800000000025 116.253067 0.40621566772460943 177.25505500000003 0.47348403930664068 176.53459000000001 94.377753000000013 0.64200019836425792 0.68634223937988292 153.73173000000003 116.29370500000002 0.42229270935058599 107.86329800000001 106.84179200000001 64.423665000000014 53.513501500000011 133.06213000000002 138.89633500000005 92.277735000000021 93.606805000000008 158.56496000000001 47.054809500000005 42.026213500000004 43.855343000000005 60.703898000000002 0.38080024719238287 0.38408088684082037
decision_type=2 2 2 2 2 2 2 2 2 2 2 2 2 2 2 2 2 2 2 2 2 2 2 2 2 2 2 2 2 2 2 2 2 2 2 2 2 2 2 2 2 2 2 2 2 2 2 2 2 2 2 2 2 2 2 2 2 2 2 2 2 2 2
left_child=18 2 3 4 5 6 9 8 11 59 40 -7 13 15 -14 16 17 35 -1 20 56 23 -23 24 -22 -25 -27 -28 -24 -30 -8 -32 -21 -19 -6 -3 37 38 -5 45 -9 -17 -43 -4 -45 46 47 48 49 -18 51 -47 -49 -54 -55 -36 57 -20 -59 61 -61 -2 -62
right_child=1 12 43 36 34 7 30 10 -10 -11 -12 -13 14 -15 -16 41 39 33 19 32 21 22 28 25 -26 26 27 -29 29 -31 31 -33 -34 -35 55 -37 -38 -39 -40 -41 -42 42 -44 44 -46 50 -48 52 -50 -51 -52 -53 53 54 -56 -57 -58 58 -60 60 62 -63 -64
leaf_value=-0.052503295330334376 -0.029303963888037167 -0.0064182540802101232 -0.044940358780447207 -0.037034816721715422 0.041831896120871431 -0.05112956036049552 0.028815139681235325 0.067594397946994705 -0.066353858544570085 0.019720489550921608 -0.039408097978192849 0.0090875073024457194 0.059934426100976539 -0.11697240647448373 -0.037988162605250994 -0.042987460508544142 -0.034680954338851454 0.033344853282134622 -0.060350724116414373 -0.061567305657216236 0.071118901739474424 -0.062550295606346978 -0.043340436565553198 -0.049100649808818342 -0.0050892332125973619 -0.042937816613320898 -0.034971301102362552 0.040127630062656384 0.030419292047794227 -0.029386552377875061 -0.022453334255159649 0.068046774138101132 -0.044682896331670149 -0.023479909942506559 -0.049168339091715862 -0.05698764228928558 -0.050994269175677599 -0.059071838329503079 0.039912569524821542 0.031773078063546165 -0.011856121582962242 0.065173217868758834 -0.059056243986761098 0.0081018504058029874 -0.039495283292736688 -0.043790028897565725 -0.044510206833965796 -0.0068887204703549174 -0.029394378031277486 0.042054847365353143 -0.040205834037879952 0.06847053905395277 -0.063482730420242203 -0.05737399805743966 0.016451787368220266 0.023844769792414382 -0.075060979387751123 0.020199122270433231 -0.044751468475519786 -0.047883410220963075 -0.030121529555907973 0.066875989731138855 0.04518667680884729
leaf_weight=1427.1432924121618 6.1163915842771512 9.6930339485406858 109.69592556357384 24.52446436882019 32.778496384620667 17.015831530094147 50.512620136141777 9.3116267770528811 49.70341745018959 20.483554497361183 12.222207114100454 19.725335568189621 17.25702740252018 38.155571281909943 70.689488992094994 377.18640625476837 8.5763107687234861 7.9058858752250663 100.02635276317596 210.5866664648056 6.8538133949041358 68.016651675105095 103.05737335979939 37.135891109704971 38.462993606925011 20.811406999826431 9.7642674595117587 19.023976132273674 11.256498053669928 24.977522075176239 27.740995362401009 5.9925753623247138 144.76343667507172 88.692485630512238 6.2353128343820563 123.36461298167706 44.998580425977707 13.768295124173163 15.415965959429739 8.3912187963724119 5.6179700493812552 4.841265067458151 4.5305114984512329 18.369634732604027 23.868733093142509 6.6128725260496122 27.155241504311562 50.292490884661674 19.436846181750298 32.08569510281086 73.3752381503582 5.245330885052681 17.850389540195465 12.85531769692898 13.920275941491125 9.732916131615637 28.201738700270653 8.5649030059576017 272.90276145935059 49.098320290446281 11.786170035600664 4.3186526000499725 5.7994290441274634
leaf_count=4008 23 37 342 78 153 53 241 49 142 85 41 82 92 52 230 1182 30 34 286 562 33 186 318 116 139 66 32 83 49 83 105 31 427 315 20 359 138 42 72 42 23 28 13 69 74 23 88 193 68 146 238 27 54 40 58 42 73 34 828 158 40 23 26
internal_value=-0.0421331 -0.0303467 -0.0208891 -0.0151319 -0.0095904 -0.0155617 -0.00379439 -0.0343991 -0.0461425 -0.0197785 0.00298885 -0.0188007 -0.0358723 -0.037489 -0.0187736 -0.0340891 -0.0281758 -0.038803 -0.0496426 -0.045946 -0.0417983 -0.0327557 -0.0439568 -0.0151712 0.00643665 -0.0264606 -0.00950971 0.0146559 -0.0348775 -0.0108072 0.0147238 -0.00637651 -0.0546889 -0.0188292 0.0266005 -0.0533037 -0.034455 -0.0205979 -0.00733513 -0.0193266 0.0376974 -0.0418212 0.00511812 -0.0376719 -0.0187951 -0.0209301 -0.0149105 -0.00972536 0.00799666 0.02587 -0.0337959 0.00586706 -0.0209463 -0.0367889 -0.018993 -0.00466557 -0.0492885 -0.0473833 -0.0427751 -0.0302698 -0.0366498 0.0105011 -0.00528617
internal_weight=4144.5 1612.95 594.833 442.899 344.192 295.445 181.849 113.596 86.4446 97.6025 27.1518 36.7412 1018.11 930.167 87.9465 892.011 505.453 229.656 2531.55 1104.41 749.056 339.36 207.308 132.052 45.3168 86.7355 49.5997 28.7882 139.291 36.234 84.2462 33.7336 355.35 96.5984 48.7467 133.058 98.7073 53.7087 39.9404 275.797 14.9296 386.558 9.37178 151.934 42.2384 267.406 182.173 155.017 60.0989 40.662 85.2334 11.8582 94.9185 44.626 26.7756 15.9682 409.696 381.494 281.468 77.119 66.6839 10.435 17.5856
internal_count=12824 5501 2152 1667 1337 1122 732 390 277 355 113 135 3349 3027 322 2975 1752 745 7323 3315 2326 1105 636 469 172 297 181 115 450 132 377 136 989 349 215 396 330 192 150 1007 72 1223 41 485 143 965 677 589 244 176 288 50 345 152 98 62 1221 1148 862 270 224 46 66
is_linear=0
shrinkage=0.05


Tree=7
num_leaves=64
num_cat=0
split_feature=6 6 6 4 4 4 6 5 5 5 6 3 6 1 6 4 5 6 6 6 0 0 0 1 4 3 1 0 4 4 0 6 5 5 0 1 0 3 4 5 5 5 3 5 1 4 6 6 3 1 4 1 3 1 0 0 4 3 6 3 4 5 1
split_gain=38.8885 19.392 26.2755 15.233 15.1738 11.8271 9.86577 21.3391 25.813 20.6547 9.95233 8.72678 8.27767 7.32 8.70788 7.22592 6.16923 7.12758 5.46566 10.0147 9.81387 8.35345 8.78658 7.9296 7.31035 7.11232 6.19113 5.36308 5.64606 6.7828 5.78245 5.56153 5.30027 10.7149 5.24598 8.60605 8.16903 11.9765 5.20348 5.57769 33.5898 14.439 10.8023 6.14416 5.17605 7.05357 5.12171 5.09984 13.3582 10.4015 11.5045 8.66093 6.98464 6.69244 7.68178 6.44324 6.02446 5.66566 8.26894 5.59307 5.18101 5.07653 5.97989
threshold=1.7229615739820081 4.5763669305204404 2.6368663491365711 113.76930750000001 116.12775500000002 99.718633000000025 4.0044784577046153 116.30629500000002 116.31043700000002 116.27587000000001 3.700364354453693 117.86274800000001 1.9862094323215844 148.13381500000003 2.1915072817119401 95.222243000000006 102.23831700000001 1.9333675981114902 3.1620431896412478 3.0343783691695592 40.167488500000012 49.155740000000009 27.154432000000003 102.23496000000002 113.25640500000002 120.97051500000002 115.356452 20.818453000000002 95.222243000000006 90.529562500000011 59.802406000000005 4.2077692048062678 109.43501000000002 111.02090500000001 177.46901000000003 103.65056000000001 176.89677500000002 116.29370500000002 109.95485250000002 116.29219500000001 116.07115250000001 116.31043700000002 64.423665000000014 116.30629500000002 70.293795000000017 81.39961000000001 4.2231392756042228 1.9862094323215844 98.460010000000025 82.621895000000009 87.146940000000015 95.822992000000013 93.028187500000016 72.589737500000012 94.156395000000018 74.200600000000023 80.130060000000014 92.431825000000018 2.4058458786031012 69.318185000000014 74.830800000000025 117.54857000000003 100.24922750000002
decision_type=2 2 2 2 2 2 2 2 2 2 2 2 2 2 2 2 2 2 2 2 2 2 2 2 2 2 2 2 2 2 2 2 2 2 2 2 2 2 2 2 2 2 2 2 2 2 2 2 2 2 2 2 2 2 2 2 2 2 2 2 2 2 2
left_child=-1 2 3 5 -5 47 10 9 -9 27 18 38 -6 16 -15 -11 17 -7 19 25 23 22 -21 -20 -22 26 -4 46 29 34 31 -31 -30 -34 36 -36 -29 -38 39 40 -3 43 -42 -41 45 -12 -8 48 52 53 51 56 -2 54 55 -49 -51 58 -52 -53 -50 -43 -63
right_child=1 11 6 4 12 13 7 8 -10 15 44 -13 -14 14 -16 -17 -18 -19 20 21 24 -23 -24 -25 -26 -27 -28 28 32 30 -32 -33 33 -35 35 -37 37 -39 -40 41 42 61 -44 -45 -46 -47 -48 49 60 50 57 59 -54 -55 -56 -57 -58 -59 -60 -61 -62 62 -64
leaf_value=-0.052874779880191097 -0.037332150775569693 -0.033489331066954696 -0.044051888677839823 0.04009209633512742 -0.052783950235304494 -0.049332719496962441 0.025936528437998964 -0.095559247667310637 -0.041079287634163367 0.040914927043871147 -0.045847154533421093 0.018543735217155351 0.0094931128671570855 -0.094583703164577426 -0.044211853814364745 -0.034509785441540118 -0.044143713072732078 0.021117986998286015 -0.029902543127582476 -0.040120169206226262 -0.043099764107368592 -0.047723848959830527 -0.09118970530997271 0.011844584103003094 0.0033798780709273627 -0.088293226161252736 -0.022250745095899228 -0.038464516617928574 -0.027492793976764754 -0.064592047492813623 -0.061453054259995948 -0.010223133827101716 -0.073256781415848002 -0.030501619183469809 -0.037334420953974892 0.031138993194096895 -0.03302389060105234 -0.1110871620561192 0.0093528568930211029 -0.050370294058148135 -0.016140931037925226 -0.0020083478061720243 0.054836633205681495 -0.099031578521246708 -0.055314301630225743 0.0073053627334827885 -0.033505993084184699 -0.024896228870761795 -0.019233287932242504 -0.039700195627344025 0.03276144470263008 0.071611765946086328 -0.080539893070829871 -0.055453239588414908 0.015383838691009247 -0.075940154152484896 0.023918728018949943 -0.044780787946273187 -0.044571154142414957 0.016391780178844823 0.035054473365615478 0.0039525701121227337 -0.049283211917616428
leaf_weight=478.13222675025463 78.336906030774117 1090.382713675499 116.49296961724758 15.301370352506636 11.95667986571789 6.0907132923603049 6.3809019327163687 35.275507494807243 56.673115581274033 11.409410044550894 102.65261083841324 8.3150661140680295 9.6356358528137189 14.232972532510756 21.601245075464249 4.4000793248414984 54.921898275613785 8.7446044981479627 52.883343398571014 11.644561246037481 319.95688784122467 57.332604423165321 30.437769219279289 14.491659820079802 8.6893996596336347 7.3361583948135367 45.200679376721382 535.79693435132504 186.02695126831532 7.529278531670573 62.937934055924416 12.533385246992109 21.242319330573082 47.246494948863983 13.331874534487726 6.9972435235977164 10.025968179106712 9.6352131515741348 7.2569416463375083 12.150228768587112 8.6424690037965792 12.056693792343138 14.116820961236952 13.917029663920403 301.82693132758141 6.6457671970129004 8.3865742236375791 53.059945359826088 9.8566296696662921 9.3562479764223081 7.5082613527774793 6.9393498301506069 10.621381521224974 22.100731015205383 10.568044647574423 6.9977431595325461 6.1786148697137824 19.116729691624641 6.4059531092643738 13.519446238875387 7.9314087033271781 6.4513942897319785 28.929618820548058
leaf_count=1295 244 3514 335 71 36 18 26 55 169 60 295 33 38 33 65 18 168 35 165 34 941 165 67 55 33 17 149 1658 589 20 173 44 54 150 40 28 34 19 29 37 33 46 79 24 831 24 27 173 35 30 31 33 26 64 42 18 25 59 20 54 33 24 84
internal_value=-0.0394508 -0.0377276 -0.0402183 -0.0286515 0.00200076 -0.0316745 -0.0424697 -0.0389869 -0.0619802 -0.0367471 -0.0458238 -0.0325017 -0.0249926 -0.0458512 -0.064219 0.0199228 -0.0364157 -0.0078059 -0.0420406 -0.0475485 -0.038307 -0.0601411 -0.0770583 -0.0209232 -0.0418708 -0.0401421 -0.0379575 -0.0377124 -0.0381957 -0.0406393 -0.0540019 -0.0306271 -0.0318709 -0.0437625 -0.038713 -0.013766 -0.0396261 -0.0712798 -0.0328572 -0.0331154 -0.0322345 -0.0464553 0.0278841 -0.07635 -0.0519382 -0.0426153 -0.00782138 -0.0260992 -0.0345817 -0.0205012 -0.00580539 0.0137493 -0.042491 -0.0314407 -0.0239265 -0.0308437 -0.0143973 -0.027114 -0.00284164 0.0351217 0.00497278 -0.030028 -0.0395762
internal_weight=4202.75 3724.62 2522.4 410.983 36.8937 374.089 2111.42 1035.83 91.9486 943.881 1075.59 1202.22 21.5923 105.591 35.8342 15.8095 69.7572 14.8353 664.466 268.445 396.021 99.4149 42.0823 67.375 328.646 169.03 161.694 928.071 913.304 658.788 83.0006 20.0627 254.516 68.4888 575.787 20.3291 555.458 19.6612 1193.9 1186.65 1113.14 73.505 22.7593 26.0673 411.125 109.298 14.7675 268.497 106.746 161.751 69.0246 35.9937 88.9583 92.7265 70.6257 60.0577 15.5349 33.0309 13.9142 20.4588 17.788 47.4377 35.381
internal_count=12824 11529 7626 1351 145 1206 6275 3164 224 2940 3111 3903 74 319 98 78 221 53 1961 767 1194 266 101 220 974 501 484 2862 2809 2016 237 64 793 204 1779 68 1711 53 3870 3841 3626 215 112 61 1150 319 53 887 338 549 252 142 270 297 233 191 55 110 51 87 68 154 108
is_linear=0
shrinkage=0.05


Tree=8
num_leaves=64
num_cat=0
split_feature=7 6 6 7 2 3 5 5 5 6 7 7 5 4 3 6 5 7 2 4 6 2 4 5 2 7 5 4 7 7 3 3 4 2 2 7 2 6 7 2 4 6 5 6 7 4 5 2 6 3 3 7 6 3 5 6 2 6 7 4 7 2 5
split_gain=125.514 90.8994 35.3443 50.4256 25.6895 23.3666 21.0107 17.1167 16.3044 15.259 28.4143 24.5177 16.3751 15.4738 16.7908 18.6923 14.249 13.1717 12.262 11.2039 11.3041 20.2757 13.024 11.9434 14.0208 11.1552 22.6276 13.7457 10.8008 11.7144 10.6183 10.384 10.3444 10.189 9.82688 9.67616 9.62287 9.31531 21.4898 15.9585 18.5711 19.6756 23.5166 15.6766 15.7306 22.7142 13.0673 12.4506 16.8809 11.3892 11.2001 11.0689 9.64889 9.49662 10.5987 10.3675 10.3435 9.22422 12.2098 9.08072 9.07995 9.03439 9.03113
threshold=0.36752128601074224 1.9042290194277243 4.5763669305204404 0.39618873596191412 156.28645500000002 63.262775500000011 116.30629500000002 116.31043700000002 116.27587000000001 4.1998412027704264 0.41240692138671881 0.53380966186523449 69.184055000000015 113.25640500000002 52.194234000000002 2.691226219868962 93.701897000000017 0.76969337463378917 177.47979500000005 106.191455 5.2706256585649536 74.217645000000019 77.746430000000018 93.701897000000017 137.80484000000004 0.44075584411621099 105.44486000000002 85.17937000000002 0.64200019836425792 0.38080024719238287 105.73662500000002 119.32442300000001 35.825783000000008 174.32706500000003 110.66456250000002 0.37346458435058599 79.755953000000019 4.9165751777761768 0.30344390869140631 130.32136500000004 52.434775000000009 4.0044784577046153 90.258625000000009 2.691226219868962 0.12413215637207027 112.46633550000001 57.62157650000001 89.873505000000009 4.1694363083537196 95.079445000000007 116.17390000000002 0.34338951110839849 3.0343783691695592 109.13833000000001 78.37064500000001 4.4538813660555361 68.867535000000018 2.213807190456345 0.61520957946777355 86.55020500000002 0.33145332336425787 124.44464000000001 70.678673000000018
decision_type=2 2 2 2 2 2 2 2 2 2 2 2 2 2 2 2 2 2 2 2 2 2 2 2 2 2 2 2 2 2 2 2 2 2 2 2 2 2 2 2 2 2 2 2 2 2 2 2 2 2 2 2 2 2 2 2 2 2 2 2 2 2 2
left_child=37 17 4 33 9 -5 8 -8 28 11 16 12 31 14 36 34 -11 32 -10 20 22 -22 -7 24 -23 27 59 -24 29 -6 -18 35 -2 -4 -16 -3 -13 38 43 40 -40 46 47 44 -1 49 50 48 60 62 -42 -44 -41 54 56 -56 -50 -36 -59 -27 -43 -53 -46
right_child=1 2 3 5 6 19 7 -9 18 10 -12 13 -14 -15 15 -17 30 -19 -20 -21 21 23 25 -25 -26 26 -28 -29 -30 -31 -32 -33 -34 -35 57 -37 -38 -39 39 52 41 42 51 -45 45 -47 -48 -49 53 -51 -52 61 -54 -55 55 -57 -58 58 -60 -61 -62 -63 -64
leaf_value=-0.045689534100363839 0.0086690708017590143 -0.080203201240695091 -0.023482515135519161 0.039784389046158275 0.026177640760418154 0.018759622045800849 -0.089953651749996852 -0.029992114053565902 0.04880113620362532 -0.037959994205535759 0.015176514675320111 -0.015191936517928642 -0.039404425524493289 0.055237099013332173 -0.0066839650780666469 0.028491353681084602 0.043016125444568745 0.004575307500128049 -0.038576623506193244 0.068011656211142454 0.059572174103700394 0.0077705150569670027 -0.06359223011018017 0.030607323817793859 -0.051575139146848428 0.028090882001220757 0.053868865490361274 -0.016886936366946464 0.01784805744365715 -0.045028348267363988 -0.027357885341644628 0.046680889581687701 -0.053743046822668596 -0.055578959643937415 -0.060026819225076515 -0.012426160728325163 0.071076168413702956 -0.050765893143213052 -0.049403043655539311 0.00098614987871171382 -0.040337522406670517 -0.0031690840729972527 -0.0028979125323851012 -0.049404439533077493 0.011430503328017283 0.065960193973419859 -0.043709897281252449 -0.062115172007773917 -0.014933870572438532 -0.043978381871372402 0.020333215287103926 0.069550165928897997 -0.04831271850296448 -0.05104517818262394 -0.019455745212507997 0.072860862606785926 -0.056155599318052453 -0.042206894263361487 0.04619521546512162 -0.034811310989128257 0.073173561995865638 -0.0070077875690745311 -0.026562285702762846
leaf_weight=246.50735154747963 6.7912337481975547 5.7845030575990668 208.58346177637577 39.33665369451046 6.0499363094568244 29.573338761925697 34.617087036371231 18.13796928524971 10.020551711320879 69.994049564003944 70.690766409039497 5.1320234388113013 257.9908579736948 9.2120480537414533 28.742586448788643 16.573125943541527 10.966220408678057 10.516469538211821 6.6995544135570517 5.617109313607215 17.474260896444321 23.931466266512871 21.594479873776436 19.526868537068367 17.038471594452858 7.3147996068000785 14.230815216898916 58.240443915128708 8.0450190305709821 127.57486125826836 10.484827816486357 6.7490101754665366 296.28015795350075 28.051657557487488 31.156016901135445 58.743483424186707 8.7336959242820722 407.89826661348343 105.85211734473705 10.362848103046415 14.255301356315615 9.7758846729993838 45.323688849806786 1032.354172706604 21.260647431015968 6.5110895931720725 156.27431850135326 20.804525747895241 58.871197268366814 71.190133884549141 16.310002818703651 11.575157538056375 235.06844240427017 30.730972453951836 6.3905117660760862 5.8028935492038727 20.523029461503029 12.911155447363855 5.6000992804765692 26.609699547290802 6.4742623567581168 5.7766472399234763 59.181901544332504
leaf_count=660 25 14 708 199 23 129 53 54 60 222 295 18 806 42 107 66 50 37 21 29 88 97 58 89 53 33 82 205 31 373 35 32 801 75 85 214 42 1114 299 38 42 35 165 2760 78 36 455 56 198 203 61 58 636 85 21 27 56 39 24 87 30 22 188
internal_value=-0.0369906 -0.0262064 -0.0205266 -0.0102886 -0.0269783 0.00405242 -0.0420085 -0.069338 -0.0329059 -0.0217712 -0.00863012 -0.0265343 -0.0335436 -0.00698558 -0.0122516 -0.0197547 -0.0270336 -0.0504357 0.0137899 -0.00177618 -0.0034405 0.0121307 -0.011146 -0.00157259 -0.01691 -0.0180559 0.000950228 -0.0295202 -0.038417 -0.0418045 0.00861877 -0.01233 -0.0523445 -0.0272874 -0.0299523 -0.0185019 0.0391463 -0.0438266 -0.0425383 -0.0357396 -0.0307372 -0.025905 -0.015844 -0.0461349 -0.0377934 -0.0254853 -0.037862 -0.0260481 -0.020633 -0.029412 -0.00796291 0.0101033 -0.0462312 -0.0269939 -0.0189238 0.0244781 -0.0255895 -0.0434177 -0.0154631 -0.0212483 0.0272468 0.044063 -0.0165209
internal_weight=4256.4 1651.32 1337.73 517.124 820.609 280.488 211.145 52.7551 158.39 609.464 162.136 447.329 329.268 118.061 108.849 94.983 91.4451 313.588 16.7201 241.152 235.535 77.9711 157.564 60.4968 40.9699 127.99 48.1553 79.8349 141.67 133.625 21.451 71.277 303.071 236.635 78.4099 64.528 13.8657 2605.08 2197.18 760.172 514.741 408.888 222.049 1437.01 404.651 158.144 186.84 159.373 138.569 151.633 30.5653 62.6755 245.431 122.319 91.5876 12.1934 79.3942 49.6673 18.5113 33.9245 16.2501 17.3518 80.4425
internal_count=12824 5501 4638 1932 2706 1149 615 107 508 2091 602 1489 1066 423 381 321 307 863 81 950 921 327 594 239 150 465 202 263 427 396 85 260 826 783 255 228 60 7323 6209 2284 1610 1311 753 3925 1165 505 558 508 452 469 103 245 674 387 302 48 254 148 63 120 65 80 266
is_linear=0
shrinkage=0.05


Tree=9
num_leaves=64
num_cat=0
split_feature=6 6 6 4 4 2 6 0 2 2 2 6 6 6 3 2 2 6 6 2 2 0 0 4 1 0 1 2 0 6 6 1 3 1 2 1 2 3 3 1 0 3 4 1 0 4 2 6 6 4 6 3 3 6 1 4 6 3 1 1 0 6 2
split_gain=30.6528 14.8929 21.2156 12.2005 13.562 10.0271 12.3839 11.3231 8.57952 51.6616 35.9625 10.0536 8.82654 13.0002 7.83852 6.61993 6.51178 6.25616 6.00341 5.86516 5.69419 7.74137 7.22822 6.04993 7.56498 5.61097 5.53334 5.16131 5.29286 4.64958 10.8119 9.61941 7.31104 5.8836 9.31046 10.9817 6.98776 5.31276 13.1904 5.0876 5.81581 5.04359 4.57269 4.87356 4.4322 4.39901 4.42417 9.90615 9.07042 7.5116 6.25285 17.6812 8.69459 18.1113 10.5238 7.37775 7.89919 10.9251 8.7833 6.34891 6.29785 6.03342 5.90537
threshold=1.7229615739820081 4.5763669305204404 2.6368663491365711 111.37921500000002 99.718633000000025 145.45418000000004 1.9862094323215844 153.40790000000001 177.46890000000005 177.46855000000002 177.47979500000005 4.0044784577046153 3.945703928303903 3.9356019106190474 117.86274800000001 75.715770500000005 170.32503000000003 3.777926110118718 2.1915072817119401 80.361633000000012 74.217645000000019 51.774851500000004 63.074732000000004 79.194022500000003 118.26821000000001 143.27470500000004 149.49422000000001 176.86551500000002 20.818453000000002 2.0793497391594249 2.1159994544552636 82.621895000000009 116.31537500000002 117.62110750000001 99.223725000000016 86.626155000000011 109.29032000000002 97.262457000000026 112.82535000000001 63.303953500000006 83.557960000000008 95.752387000000013 87.958455000000015 95.822992000000013 129.91507000000004 109.95485250000002 118.37175000000001 4.728863466797474 4.7074098406568288 95.887557500000014 4.9752414226797521 49.846077000000008 61.452532500000011 5.2526294717153714 75.50091500000002 96.410582000000019 5.2948900280353071 109.79476500000003 88.439515000000014 56.155774000000008 66.615447500000002 5.0964873459837507 82.673555000000007
decision_type=2 2 2 2 2 2 2 2 2 2 2 2 2 2 2 2 2 2 2 2 2 2 2 2 2 2 2 2 2 2 2 2 2 2 2 2 2 2 2 2 2 2 2 2 2 2 2 2 2 2 2 2 2 2 2 2 2 2 2 2 2 2 2
left_child=-1 2 3 4 16 6 25 -7 9 11 -10 12 13 17 45 -6 29 -4 26 20 21 -19 -23 -24 -25 -5 -17 28 -13 32 -31 39 33 34 37 -36 -35 -2 -39 40 41 -32 43 -33 -8 46 47 48 49 -3 51 -49 53 54 -52 56 60 58 -58 -53 -54 -57 -50
right_child=1 14 8 5 15 7 44 -9 10 -11 -12 27 -14 -15 -16 18 -18 19 -20 -21 -22 22 23 24 -26 -27 -28 -29 -30 30 31 42 -34 36 35 -37 -38 38 -40 -41 -42 -43 -44 -45 -46 -47 -48 50 62 -51 52 59 55 -55 -56 61 57 -59 -60 -61 -62 -63 -64
leaf_value=-0.046503866806429123 -0.047929436134468283 -0.022781625971765931 -0.037353487125900572 -0.026250434993267825 -0.0083603601959140721 0.056704022165675487 -0.011486701532446053 -0.028720881968789705 0.05617596644463424 -0.099331405556696561 -0.039548055435233695 -0.0062312505864296694 -0.054981590417469077 0.010285666400271475 0.019497206606519716 -0.049844676988176857 0.01989958948870818 -0.0091984765896821873 -0.035809632407791524 -0.053376790823608626 0.0033862005735264566 -0.083482747969546411 -0.057605315515081815 0.012435922089647987 -0.04398958234982988 -0.085478496244321592 -0.088047434877020728 -0.057778631426275234 -0.033231737656127545 0.037196500424038041 -0.02014138627443687 -0.0077576592614395229 0.016370791439486988 -0.019433179171019679 0.041118087043306023 -0.022849626341658727 -0.067954678529978954 0.032143112998552124 -0.065069250049215335 -0.048445426825243554 0.024087953564559728 -0.062565693416448659 -0.0187535898446737 0.040689817359448877 0.037107126397721048 0.0097557172743844706 -0.032507578495005629 -0.06189938552046545 0.052997426098090022 0.020642443833996951 0.045149501198077618 -8.5971143595244901e-05 -0.062946196304451016 -0.031994332663718511 -0.025046591403837987 -0.034569897386077776 -0.012230044895844812 0.043499329161838157 -0.038059887081836746 -0.0316068304801599 -0.035109949928564692 0.0093937787017300926 -0.016521134302145534
leaf_weight=491.91673125326633 44.596546873450279 94.946604892611504 760.47303779423237 10.377877354621889 10.896555945277212 11.661620751023294 10.752059742808344 5.8127208948135367 12.632195919752119 33.683082222938538 43.945587649941444 18.50576463341713 92.640539705753326 13.284069314599035 8.3767350018024427 27.499721869826317 8.6567811369895917 15.529424503445624 39.256031960248947 135.70314547419548 8.028458431363104 12.024768874049185 25.519062787294388 9.4122546166181582 16.102622792124748 6.5053343772888175 14.463765814900396 20.98495888710022 945.33078642189503 8.4833767116069776 37.630143836140633 11.042625755071642 7.8055584132671347 11.195440918207167 8.8613617271184904 27.629262655973434 22.003578498959541 7.5704317688941938 6.4730210900306702 27.909043803811073 6.050991788506507 8.6083046048879606 19.315921142697334 9.7956718653440458 8.3260996639728528 7.2647669464349738 563.58340519666672 50.794716045260429 7.9207726716995221 11.125888019800184 17.730181977152828 18.439278706908226 27.27016194164753 33.493987455964088 7.640133097767829 12.418470501899717 57.382679581642151 5.7217381596565238 77.177143022418022 119.5391451716423 79.719715788960457 21.001930400729179 4.9726164638996124
leaf_count=1295 124 308 2178 33 38 58 39 19 72 45 127 65 241 46 33 77 35 50 119 353 27 26 66 34 45 15 31 54 2846 36 121 39 30 37 36 89 57 32 18 80 24 22 64 43 35 29 1751 131 36 43 83 69 75 105 26 39 201 27 237 374 240 79 17
internal_value=-0.0347579 -0.0332412 -0.0353955 -0.0251 -0.0283605 -0.00278323 -0.0178814 0.028288 -0.03739 -0.0379058 -0.0181756 -0.036908 -0.0402193 -0.0388463 -0.0287044 -0.0449548 -0.0227742 -0.0395104 -0.0498643 -0.0468886 -0.0367234 -0.0408209 -0.0486085 -0.0403914 -0.0231746 -0.0490718 -0.0630122 -0.0332474 -0.0327133 -0.0241683 -0.01736 -0.0212055 -0.0306117 -0.0334694 -0.0271448 -0.00731574 -0.0515922 -0.0394841 -0.0126648 -0.0312078 -0.0220073 -0.0280396 -0.00122836 0.0150165 0.00972064 -0.0290359 -0.0292686 -0.0264485 -0.0134135 -0.0182269 -0.0293837 -0.0366789 -0.0253279 -0.00785651 0.0240103 -0.0289919 -0.031972 -0.0241675 -0.0270448 -0.0273944 -0.042205 -0.0069424 0.0261861
internal_weight=4301.42 3809.5 2582.98 419.18 365.744 53.4357 35.9614 17.4743 2163.8 2107.22 56.5778 2073.54 1088.72 996.077 1226.52 92.1161 273.628 982.793 81.2195 222.32 86.6166 78.5881 63.0587 51.0339 25.5149 16.8832 41.9635 984.822 963.837 264.971 128.836 120.353 136.135 128.33 95.1306 36.4906 33.199 58.64 14.0435 80.1985 52.2894 46.2384 40.1542 20.8383 19.0782 1218.14 1210.88 647.295 118.966 106.072 528.329 188.773 339.556 58.8643 25.3703 280.692 247.271 140.282 134.56 137.978 106.99 33.4204 12.8934
internal_count=12824 11529 7626 1351 1152 199 122 77 6275 6076 199 6031 3066 2825 3903 265 887 2779 227 601 248 221 171 145 79 48 108 2965 2911 852 429 393 423 393 299 125 94 174 50 247 167 143 146 82 74 3870 3841 2090 404 351 1686 574 1112 214 109 898 780 465 438 443 315 118 53
is_linear=0
shrinkage=0.05


Tree=10
num_leaves=64
num_cat=0
split_feature=7 2 2 2 7 3 7 5 4 1 4 4 7 2 7 4 5 7 2 5 3 2 4 5 3 4 1 3 4 7 7 7 4 1 7 2 5 3 2 7 7 5 2 5 1 4 4 2 5 7 1 1 7 5 5 2 7 7 4 5 2 5 1
split_gain=150.656 27.8373 73.4906 43.67 30.6355 18.1256 26.5153 15.8257 12.6789 16.129 22.6375 12.3386 12.2976 11.575 10.9863 14.9298 13.4195 16.0213 11.198 9.41663 9.24604 18.9435 9.09752 10.1177 10.8923 9.6577 9.25154 9.03729 8.96941 8.59568 9.08456 8.35323 8.53257 8.27704 8.2387 8.40158 7.80391 7.44691 7.30712 7.10695 8.38558 13.2791 7.75826 9.54497 6.99227 28.1243 16.1509 12.9872 14.519 13.5047 8.49066 9.48713 10.4921 18.3104 7.54649 7.26607 6.96732 8.47706 8.82852 10.7576 6.82919 16.8276 10.4902
threshold=0.37053680419921881 177.46855000000002 177.46890000000005 177.47979500000005 0.49487304687500006 74.018203000000014 0.40146064758300787 33.485650000000007 94.900515000000013 110.84348000000001 80.332650000000015 94.093880000000013 0.28533744812011724 27.359972000000003 0.43144989013671875 85.807210000000012 71.149687000000014 0.42113685607910162 167.73276500000003 102.71828000000001 90.084150000000008 61.086342000000009 83.695867500000006 113.65343250000001 110.11845500000001 68.956655000000012 145.54633500000003 70.672378000000009 18.786869000000003 0.40522003173828131 0.40038108825683599 0.44612884521484381 96.694360000000003 136.36760000000001 0.38498497009277349 50.599157000000005 97.438949500000021 27.136425500000005 137.80484000000004 0.41999816894531256 0.41240692138671881 92.859945000000025 121.04410700000001 105.44486000000002 80.802150000000012 74.268210000000025 75.94018800000002 47.318260000000009 94.067598000000018 0.32120513916015631 92.108285000000009 83.351358000000019 0.29635047912597662 96.573042500000014 36.139686500000003 67.373455000000021 0.47570037841796881 0.43791389465332037 109.09204200000001 90.580202000000014 123.74949700000001 69.61872750000002 82.621895000000009
decision_type=2 2 2 2 2 2 2 2 2 2 2 2 2 2 2 2 2 2 2 2 2 2 2 2 2 2 2 2 2 2 2 2 2 2 2 2 2 2 2 2 2 2 2 2 2 2 2 2 2 2 2 2 2 2 2 2 2 2 2 2 2 2 2
left_child=12 4 -3 -4 5 6 8 -8 9 10 60 27 28 -7 16 19 17 20 56 -16 -15 34 25 26 -25 -18 29 37 -1 30 33 -20 -33 -24 -22 -36 -28 -9 -29 40 42 -42 -39 -44 45 -14 -46 54 -49 -50 51 -48 -53 55 -47 -54 57 58 59 -17 61 -2 -63
right_child=1 2 3 -5 -6 13 7 11 -10 -11 -12 -13 44 14 15 18 22 -19 31 -21 21 -23 23 24 -26 -27 36 38 -30 -31 -32 32 -34 -35 35 -37 -38 39 -40 -41 41 -43 43 -45 46 47 50 48 49 -51 -52 52 53 -55 -56 -57 -58 -59 -60 -61 -62 62 -64
leaf_value=0.00053268245486004636 -0.026038092656041418 -0.097468208514453869 0.051878387971980633 -0.033945792714698546 -0.028821465906840822 0.037195179281614171 -0.04686153432656609 -0.01903227341480947 0.049295747347707752 -0.045114103248493839 0.049748540219344085 -0.01858489690889964 -0.037091136038667386 -0.037133076723100719 0.0035666659861760402 -0.019158369352715063 0.0078192937434866713 0.054956493612972605 -0.030156701145066606 0.069118178541453676 -0.039774204386904717 0.050045855421086666 -0.01214177535190112 -0.054533714980134262 0.011575205177193855 -0.046049474227755759 -0.066985700531334069 0.018143837751086588 -0.044046365464619153 -0.026131043953184243 0.05178480062445831 0.068053330065219339 -0.0054268454900050691 0.039167565807387304 0.039143122087503333 -0.019164132162912347 -0.024209500840349459 0.067191003775018784 -0.04542681915505925 0.048716206304296662 -0.0608805632271881 0.04252941726584069 -0.040075887565203333 0.04835348330638338 -0.057313131792782114 -0.0022159219767971749 -0.056315419534407413 -0.028952870254779189 0.075166670234284375 -0.0099188894092012217 -0.038654472475587093 -0.043965159778685203 0.011192714533364304 0.040418372569832106 0.074687885031976084 -0.042702680014922369 -0.0010267143519144249 -0.034701695003310586 -0.04671343990414694 0.073063465448529707 -0.042120687929078651 0.059576984423485739 -0.020205470529986672
leaf_weight=11.390367373824118 47.344813212752342 41.806237637996674 18.027904212474823 83.345901563763618 490.29409076273441 9.4037760943174344 10.218846917152403 6.783601686358451 6.8416659832000724 45.441177085042 14.002300828695295 19.649023845791817 448.12541833519936 28.592368558049202 66.287905648350716 6.4731080979108828 9.1938470602035505 9.4075407385826093 7.3276576101779964 5.9722039103507987 22.122540608048439 13.336701139807699 74.435913100838661 39.03906075656414 7.4140082746744147 87.570328578352928 14.806031286716459 11.535373523831369 1202.1893565803766 62.869233697652817 7.2091405242681494 8.6157441884279233 7.2966018170118323 8.787947550415991 9.5319543927907961 17.558817595243454 38.096691340208054 10.984058961272241 7.4331946223974219 45.110078036785126 6.8618863075971586 5.6693993955850601 5.4463910907506925 6.9399262219667435 111.12271530926228 5.6815730333328229 15.851099178194998 46.799025744199753 7.4701744168996838 12.412312313914297 783.65501436591148 19.402244195342064 9.3443608433008212 17.318724319338799 7.2741499990224838 18.907454952597618 28.097826465964317 97.60153166949749 6.2565401792526236 6.182371661067009 22.986979275941849 11.456029802560808 6.4340679496526709
leaf_count=37 163 56 99 254 1481 44 34 26 31 127 64 68 1273 92 261 22 35 44 25 31 66 59 254 107 29 252 39 49 3168 205 32 48 25 37 43 58 125 59 23 222 22 27 19 33 277 19 43 141 34 43 2181 51 34 71 33 54 102 304 19 29 68 52 22
internal_value=-0.0326823 -0.0206347 -0.0416871 -0.0186832 -0.0185993 -0.01354 -0.00305663 0.0129894 -0.0172462 -0.0203293 -0.00931178 0.0178275 -0.0398839 -0.0179034 -0.0186542 -0.0100178 -0.0232627 -0.00716625 -0.0181983 0.00898441 -0.0135784 -0.00281133 -0.0278946 -0.0229018 -0.0439826 -0.0409312 -0.0181528 0.0245289 -0.043628 -0.0119313 -0.00205962 0.014017 0.034359 -0.00672381 -0.0171355 0.00135142 -0.0361814 0.0312907 -0.00676753 0.0355045 0.0189042 -0.0140959 0.0365989 0.00947018 -0.0368616 -0.0322254 -0.0393696 -0.00484539 -0.0137456 0.0220491 -0.0370631 -0.0216335 -0.0131723 -6.17852e-05 0.0409627 -0.0248766 -0.0233755 -0.028765 0.00187324 0.0258932 -0.0186857 -0.0104278 0.0308837
internal_weight=4341.04 1624.1 143.18 101.374 1480.92 990.626 291.139 136.632 154.507 147.665 102.224 126.413 2716.94 699.487 690.084 240.111 449.972 100.55 167.851 72.2601 91.1424 62.55 349.422 252.658 46.4531 96.7642 206.205 106.764 1213.58 153.302 90.433 23.24 15.9123 83.2239 49.2133 27.0908 52.9027 87.7953 18.9686 81.0117 35.9017 12.5313 23.3704 12.3863 1503.36 527.763 975.602 79.6372 66.6815 19.8825 864.479 80.8239 64.9728 45.5705 12.9557 28.2518 144.611 116.514 18.912 12.6555 88.2219 65.2349 17.8901
internal_count=12845 5386 409 353 4977 3496 1109 582 527 496 369 548 7459 2387 2343 866 1477 362 574 292 318 226 1115 828 136 287 692 480 3205 528 323 98 73 291 167 101 164 408 72 382 160 49 111 52 4254 1543 2711 270 218 77 2434 253 210 159 52 88 476 374 70 51 305 237 74
is_linear=0
shrinkage=0.05


Tree=11
num_leaves=64
num_cat=0
split_feature=7 6 7 6 2 7 6 6 7 3 5 5 2 4 6 4 2 5 7 6 6 5 3 7 5 3 2 5 5 4 6 4 4 5 3 2 7 3 2 4 7 3 4 7 4 6 7 4 6 7 5 4 5 3 5 2 5 6 7 7 2 4 6
split_gain=132.597 75.1891 34.153 29.5141 19.0827 19.0189 19.1697 18.6756 16.5585 19.5582 13.5374 17.4143 11.3883 11.2339 15.6351 20.7107 11.0036 14.7069 10.8883 18.24 14.8503 10.3337 10.0179 9.82469 16.1739 9.57973 13.7748 12.8179 9.51845 8.97892 10.3743 8.70417 7.8433 10.3133 7.81598 7.42167 7.37393 7.27654 6.85404 6.77347 6.8881 6.72342 6.72768 6.702 6.57903 6.54897 11.6763 6.53556 8.86777 8.49751 6.63339 6.48568 6.39805 7.43682 7.47543 6.34319 9.05833 10.0944 7.17487 11.7379 9.99745 6.85224 6.52686
threshold=0.37053680419921881 4.855914700970688 0.39760589599609381 1.6849075134427742 137.80484000000004 0.42984580993652349 4.6639236788020417 4.3019339546157225 0.46930885314941412 72.077275000000014 116.81427300000001 116.30629500000002 175.76558000000003 94.664518000000015 5.2526294717153714 95.663555000000017 70.943113000000011 99.37848000000001 0.28533744812011724 5.220793068057632 3.3416629835988476 109.17243500000002 120.17581500000001 0.69516372680664074 89.376920000000013 97.986468000000016 73.048320000000018 107.58757250000001 105.16467000000002 113.76930750000001 1.857048499176309 64.17114500000001 103.79419000000001 97.438949500000021 101.18994700000002 153.73173000000003 0.41382789611816412 80.135170000000016 30.736776500000001 101.50146500000001 0.44075584411621099 88.003875000000008 79.91107550000001 0.5181407928466798 83.117530000000016 2.8541932425711298 0.54186058044433605 111.37921500000002 1.562313760142384 0.6197490692138673 65.40941500000001 94.664518000000015 33.485650000000007 50.957687000000007 48.957241000000003 133.42353000000003 113.12751200000001 3.87162445114603 0.35072898864746099 0.35605049133300787 10.875479000000002 52.889023000000002 4.8092882867400801
decision_type=2 2 2 2 2 2 2 2 2 2 2 2 2 2 2 2 2 2 2 2 2 2 2 2 2 2 2 2 2 2 2 2 2 2 2 2 2 2 2 2 2 2 2 2 2 2 2 2 2 2 2 2 2 2 2 2 2 2 2 2 2 2 2
left_child=18 3 25 43 7 10 23 22 9 -9 11 28 -12 16 15 -15 -4 35 20 55 -1 -8 38 29 -25 -3 -27 32 -6 -7 -31 36 33 -28 -17 41 -11 -19 44 40 -33 42 -18 -2 -5 46 -24 49 -49 -45 -51 -21 -40 -54 -55 56 58 -58 60 -60 -20 -62 -63
right_child=1 2 13 4 5 6 21 8 -10 31 12 -13 -14 14 -16 34 17 37 19 51 -22 -23 45 24 -26 26 27 -29 -30 30 -32 39 -34 -35 -36 -37 -38 -39 52 -41 -42 -43 -44 47 -46 -47 -48 48 -50 50 -52 -53 53 54 -56 -57 57 -59 59 -61 61 62 -64
leaf_value=-0.035249019162598573 -0.064935461405044567 -0.022255790252305611 0.048272449994100214 0.046773467860390015 -0.059418938826606593 -0.029733320472357296 -0.016762042168528661 0.029623842582509538 0.056897875998862674 0.069751818609445265 0.049065242575414711 -0.079373450834903644 -0.044113979460848787 -0.090266332735528018 0.033716856814240394 -0.023941197483302715 0.014194733010485126 0.060424163885102404 0.029864213847198673 -0.052171292525635571 -0.046263041456421065 0.064184799436448961 -0.034076554617396219 -0.030327655873387996 0.074153831032626349 0.071952091756907852 -0.046496578125921832 0.050164813241825174 -0.030695016724234608 -0.028840154121564605 0.051844318776683218 -0.032093172443206315 -0.063467394756812637 0.046104709429642864 0.036309207350116841 -0.026879675576930703 -0.0079168102908911513 0.012314836887571927 -0.052795032210998752 0.026600622453224278 0.00887786731733709 -0.011564917581687765 0.070634102659362819 -0.057025404631251643 -0.032274177172728409 0.050508497329933268 0.049213871558218283 -0.032821253002625464 0.025932950094394558 -0.011001852397177637 -0.04169083864091272 -0.032140724778544287 0.0012897583456160753 0.017100889775348408 -0.025244760741921529 -0.037771903982399088 -0.036704655358071936 0.015391919977859977 0.0012369859622116137 -0.029536737523433356 -0.044078918154421179 -0.028913200815767266 -0.042703881250889072
leaf_weight=586.40166662633419 27.694033488631248 127.4029274135828 31.879642739892006 6.8281310498714429 38.47138874232769 198.50625258684158 6.5693529397249248 30.737046092748642 11.699540123343466 5.0064745098352414 7.3632480949163419 30.274563178420067 5.9119803905487061 9.0050608515739459 16.662836298346519 13.925698757171633 32.355538234114647 21.07653546333313 6.2092085331678382 178.00461341440678 640.12618930637836 9.8609834760427457 12.449994370341306 8.5542997270822507 6.5327557921409598 6.6723906099796286 6.1804579049348884 7.0737036466598502 115.22280205786228 8.4463085532188398 7.5409126579761496 67.249553292989731 8.842362165451048 5.8555376082658768 8.7742919027805311 16.513060554862022 7.8438804596662521 12.533661916851996 17.836125329136848 6.6747663617134085 12.10509607195854 21.325774684548378 6.3097751885652533 64.17431215941906 4.2835244238376617 7.0744843035936347 6.3559777736663809 29.143660679459572 8.2372574955224973 24.518335908651352 62.474735274910927 52.281122028827667 31.152518972754478 10.714369058609007 382.16927002370358 379.78857730329037 15.917224198579786 22.360550031065941 41.655755132436752 120.97914077341557 132.96027213335037 462.81801065802574 105.32161661982536
leaf_count=1593 64 411 164 33 100 609 22 142 56 25 35 49 15 21 75 47 138 111 23 446 1612 59 39 27 30 32 18 32 362 25 34 210 26 26 39 55 32 52 53 28 49 76 31 154 14 32 28 80 29 74 163 146 115 42 1203 1015 47 83 143 363 356 1344 288
internal_value=-0.0307828 -0.0194968 0.000954338 -0.0251285 -0.0217044 -0.029627 -0.0203531 -0.016042 -6.99887e-05 -0.00521205 -0.0411937 -0.0447124 0.00756888 0.0153151 -0.00549633 -0.0261051 0.0224042 0.0149149 -0.0374935 -0.0346631 -0.0409972 0.0318198 -0.0207554 -0.0240869 0.0149132 -0.0159178 0.00740342 -0.00800488 -0.0378849 -0.0268301 0.0092174 -0.0160409 -0.0277131 -0.00144585 -0.000652437 0.00280334 0.0223427 0.0424836 -0.022484 -0.0217743 -0.0258433 0.0109738 0.023405 -0.0419676 0.0163007 0.00950025 -0.00592634 -0.0385941 -0.0198742 -0.0432232 -0.0330414 -0.0476238 -0.0234593 -0.0222254 -0.0240899 -0.0323458 -0.0300768 -0.00627164 -0.0311242 -0.0216546 -0.0333016 -0.033861 -0.0314697
internal_weight=4376.89 1632.07 352.389 1279.68 1063.44 443.255 246.011 620.181 141.316 129.617 197.244 183.969 13.2752 190.362 48.3679 31.7051 141.994 110.114 2744.82 1518.3 1226.53 16.4303 478.864 229.581 15.0871 162.027 34.6245 27.9521 153.694 214.493 15.9872 98.8798 20.8784 12.036 22.7 76.5041 12.8504 33.6102 452.984 86.0294 79.3546 59.9911 38.6653 216.242 11.1117 25.8805 18.806 188.548 37.3809 151.167 86.9931 230.286 441.872 424.036 392.884 1288.01 908.222 38.2778 869.944 162.635 707.309 701.1 568.14
internal_count=12845 5386 1354 4032 3468 1367 806 2101 542 486 561 511 50 809 182 107 627 463 7459 4254 3205 81 1559 725 57 545 134 102 462 668 59 344 70 44 86 300 57 163 1460 287 259 245 169 564 47 99 67 500 109 391 237 592 1413 1360 1245 3662 2647 130 2517 506 2011 1988 1632
is_linear=0
shrinkage=0.05


Tree=12
num_leaves=64
num_cat=0
split_feature=7 6 7 6 1 1 4 2 2 2 2 4 3 7 6 7 6 6 7 6 6 1 2 4 3 6 3 4 7 3 2 7 7 7 1 4 6 6 7 1 7 3 3 6 4 1 3 2 3 6 6 6 2 4 3 1 4 2 4 6 6 3 7
split_gain=117.076 67.0807 30.9049 26.1229 24.0129 22.7589 13.0136 11.9738 11.8869 50.2128 36.8497 10.5952 14.8401 12.1302 24.9073 10.3879 9.90549 15.2188 9.69021 16.042 13.0816 9.64046 9.4432 9.26914 13.2032 9.12531 8.99441 8.85145 9.50369 8.57289 12.8087 8.32485 8.14965 8.00402 7.9473 24.962 11.9536 12.0673 13.8915 10.7344 15.689 9.55062 14.071 9.53499 8.75072 7.93944 7.91583 7.49366 8.47659 17.4182 7.31727 8.39922 7.21299 11.4989 8.556 7.57311 7.20001 7.08188 14.3309 7.82488 7.41475 7.05686 7.03922
threshold=0.37053680419921881 4.855914700970688 0.39760589599609381 1.6849075134427742 140.72378500000005 130.54880500000004 101.81351300000001 27.359972000000003 177.46890000000005 177.46855000000002 177.47979500000005 91.335357500000015 72.077275000000014 0.432830810546875 4.1998412027704264 0.69516372680664074 5.3878922267848894 5.6616384374142283 0.28533744812011724 5.220793068057632 3.3416629835988476 81.910305000000008 177.41833500000004 64.574695000000006 78.181760000000011 5.0608069176818455 63.595638500000007 71.266590000000022 0.42113685607910162 97.986468000000016 73.048320000000018 0.45228004455566412 0.46307373046875006 0.41240692138671881 90.533050000000017 72.571475000000007 4.4399308770813839 4.8660338370778424 0.33388519287109381 73.027098000000009 0.32829093933105474 78.439768000000015 68.162175000000005 4.2371246718392976 95.082280000000011 101.22092500000001 92.431825000000018 129.63364000000004 103.02529700000001 4.0367803157261264 2.525943562132356 3.1620431896412478 115.65928500000001 68.201309500000022 74.743438000000012 63.720264500000006 109.95485250000002 139.89899500000004 62.114605000000005 4.3203891624937452 4.1894500642894013 118.30062750000002 0.45466041564941412
decision_type=2 2 2 2 2 2 2 2 2 2 2 2 2 2 2 2 2 2 2 2 2 2 2 2 2 2 2 2 2 2 2 2 2 2 2 2 2 2 2 2 2 2 2 2 2 2 2 2 2 2 2 2 2 2 2 2 2 2 2 2 2 2 2
left_child=18 3 29 -2 21 7 16 -5 9 22 -10 13 -13 26 15 -15 62 -18 20 34 -1 -4 31 -23 -25 33 57 28 -28 -3 -31 -7 -33 -26 35 -20 39 41 -39 40 43 42 -38 -37 -41 -17 -27 48 49 -14 -36 -52 53 55 -54 -16 61 58 59 60 -9 -53 -6
right_child=1 2 4 5 6 8 -8 11 10 -11 -12 12 47 14 52 45 17 -19 19 -21 -22 23 -24 24 25 46 27 -29 -30 30 -32 32 -34 -35 50 36 37 38 -40 44 -42 -43 -44 -45 -46 -47 -48 -49 -50 -51 51 56 54 -55 -56 -57 -58 -59 -60 -61 -62 -63 -64
leaf_value=-0.033208354845952658 -0.039481801826607391 -0.020986798030270846 0.050630646540455237 0.047931631989702184 -0.059500479314372405 -0.037617053869262576 0.047684721553051965 -0.0069792039710520146 0.057455257382827911 -0.089720101886842929 -0.030655602724129784 0.037794107897417828 -0.0046601717293201566 -0.023671722910771593 0.038665983162582573 -0.0093356513269973098 0.068667127595519475 -0.037060647185023082 -0.032657710156821472 -0.044718358767432451 -0.043499051440464898 -0.0252766984421905 0.027688949565078676 0.047073226745351096 -0.063494142592981459 0.0036238188654359495 -0.02116260673833973 -0.037168919865680182 0.045622316629645526 0.070448952775054127 -0.0075631514117044957 0.032158107630872533 -0.022975264282520398 0.0029225793792490755 0.0019822720949723453 0.07456569764885819 0.036856971760185743 -0.051053977658118657 0.028504478109171529 -0.03441269355326225 -0.028388503310362113 0.056561471518586204 -0.053515040820749815 -0.010949523782326671 0.020572770210643923 0.073311377366477928 0.04665546215525837 -0.029299454288839649 -0.012985027391564239 0.072423338253876465 -0.053335533941846085 -0.03558856919040209 0.046773375093145109 0.055754010761591637 -0.023580377042526038 -0.040296811547176785 -0.0081936966890694875 -0.035677734377343076 0.040738821653569041 0.014580347640183676 -0.070098760047155428 -0.012708016717971411 0.0011070744870686894
leaf_weight=591.18613457679749 218.29549141228199 128.32659210264683 29.113109931349754 7.4799219071865073 20.076108962297443 133.73817770183086 6.8200745433568946 9.1913811266422325 15.186086878180502 36.139446914196014 54.281028941273689 18.102992758154869 27.619240239262581 156.8371414989233 5.4685808420181257 7.0816665738821012 5.8351954072713843 8.1678571403026563 421.62027238309383 232.91251826286316 646.58628763258457 10.98662284016609 7.6409675180912009 36.619767710566521 6.4862814247608211 24.03063477575779 45.566170901060104 160.0815445035696 6.0320930927991858 6.4789237678050986 28.005325958132744 7.0520891100168219 135.28877140581608 15.08825361728668 13.830115139484404 9.1703884601593035 11.624082893133165 13.742334425449373 9.1333455890417081 72.471229419112206 15.640172928571699 15.540844559669493 6.8427817523479453 5.0573264956474295 8.0384077280759794 4.9280052334070206 19.246649757027626 38.124011889100075 80.112467288970947 9.9755593389272672 55.886112838983536 576.59908214211464 5.9903318583965328 20.908797919750214 15.512401670217512 6.8274906128644943 27.709088250994682 18.693922236561775 15.02046352624893 10.792993992567061 9.4224526733160001 35.790878444910049 6.2924170643091193
leaf_count=1593 564 411 156 37 57 391 32 32 88 49 163 81 92 498 28 24 30 26 1176 592 1612 40 41 185 18 93 153 458 28 32 102 29 422 58 47 42 47 35 34 203 47 66 18 16 30 23 90 115 269 47 138 1564 27 100 53 24 89 56 68 46 26 110 24
internal_value=-0.0290255 -0.0184337 0.000923 -0.0237198 0.0146906 -0.0205014 -0.0161973 -0.0149805 -0.030141 -0.0342126 -0.0113938 -0.0156804 -0.00505556 -0.0193887 -0.01074 -0.0202399 -0.0269891 0.00699705 -0.035294 -0.0326351 -0.038584 0.0249868 -0.0271422 0.0183482 0.0230716 0.00951862 -0.0264245 -0.0313642 -0.0133551 -0.0150392 0.00709381 -0.0286597 -0.0202438 -0.0170453 -0.0304681 -0.0261739 -0.00982984 0.00878974 -0.0192895 -0.0194255 0.00617452 0.0276775 0.00337018 0.0441688 -0.0289227 0.0245774 0.0227612 -0.0100334 -0.00379339 0.0157935 -0.0340307 -0.0347463 0.0185801 0.0331901 -0.0039809 -0.00517873 -0.0331233 -0.00985922 0.00100458 -0.0192909 -0.0389308 -0.0342513 -0.0450375
internal_weight=4408.35 1638.97 351.574 1287.39 188.763 1069.1 47.1917 679.77 389.327 319.859 69.4671 672.29 173.934 498.355 223.554 168.847 40.3716 14.0031 2769.38 1531.61 1237.77 141.571 283.72 112.458 101.472 64.8518 274.801 211.68 51.5983 162.811 34.4842 276.079 142.341 21.5745 1298.7 588.881 167.261 56.8834 22.8757 110.378 29.8679 34.0077 18.4669 14.2277 80.5096 12.0097 43.2773 155.831 117.707 37.5948 709.815 695.985 54.7076 33.2049 21.5027 12.2961 640.099 63.1212 44.4273 29.4068 18.6138 612.39 26.3685
internal_count=12845 5386 1354 4032 809 3468 169 2285 1183 932 251 2248 604 1644 777 545 137 56 7459 4254 3205 640 883 484 444 259 867 639 181 545 134 842 451 76 3662 1714 538 200 69 338 105 131 65 58 233 47 183 523 408 139 1948 1901 232 152 80 52 1763 228 172 104 58 1674 81
is_linear=0
shrinkage=0.05


Tree=13
num_leaves=64
num_cat=0
split_feature=7 6 7 1 6 2 2 2 2 2 6 7 0 5 5 6 6 0 1 7 7 6 0 2 7 1 5 5 2 1 7 0 0 7 6 6 0 6 2 5 2 5 0 7 0 6 1 2 1 1 5 0 6 5 6 2 2 2 7 5 7 1 7
split_gain=104.185 44.7339 32.0102 20.7751 20.4936 19.1035 23.4746 27.8858 16.7342 14.0881 14.0135 13.2942 25.9125 11.1027 17.1651 13.0407 10.3373 14.0855 9.99929 9.21914 9.09902 9.93538 14.3676 14.1695 11.9023 13.3624 11.7335 9.06654 11.797 8.38345 9.67566 14.8878 8.38126 8.48838 13.7626 12.8533 10.0128 12.285 11.1634 11.0552 8.87594 16.1449 13.1692 12.8875 8.84409 8.13346 13.2979 7.89622 8.25449 8.59696 7.81462 7.77086 9.54227 7.1076 7.07991 6.9376 10.3237 8.52038 7.10754 6.82266 6.76553 6.65788 6.59362
threshold=0.36556625366210943 4.5763669305204404 0.43144989013671875 143.40454500000004 1.6849075134427742 174.32706500000003 177.46890000000005 177.47979500000005 152.74743500000002 177.46855000000002 5.5568864575939712 0.39760589599609381 61.178810000000006 112.92090300000002 76.823005000000009 5.0075159832946161 5.0608069176818455 163.51584500000004 119.77959250000002 0.44976425170898443 0.69516372680664074 4.2077692048062678 161.78439500000005 30.736776500000001 0.41240692138671881 101.22092500000001 87.28979750000002 94.067598000000018 151.30420000000001 111.96986250000002 0.41669273376464849 64.951992500000003 7.7889633500000004 0.28330612182617193 4.8092882867400801 4.1894500642894013 122.56798500000001 4.4538813660555361 144.86489000000003 112.22304900000002 46.914156000000006 54.696851000000002 89.02563450000001 0.31779098510742193 90.816552500000014 4.7190657029286252 91.055652500000008 82.673555000000007 63.303953500000006 69.681382500000012 100.49810500000001 177.46901000000003 3.2943783778284828 109.43501000000002 3.8198682144966489 74.217645000000019 85.211827000000014 119.77933 0.41116905212402349 93.248865000000009 0.30344390869140631 112.27530000000002 0.35393714904785162
decision_type=2 2 2 2 2 2 2 2 2 2 2 2 2 2 2 2 2 2 2 2 2 2 2 2 2 2 2 2 2 2 2 2 2 2 2 2 2 2 2 2 2 2 2 2 2 2 2 2 2 2 2 2 2 2 2 2 2 2 2 2 2 2 2
left_child=32 4 8 13 -2 20 9 -8 11 19 29 45 -13 14 -4 18 17 -14 -16 -7 21 22 23 -6 27 47 -27 -23 53 -10 -31 -32 -1 35 36 -34 37 40 39 -39 41 42 60 -42 -43 46 -3 48 -26 -50 -22 54 -53 -29 -24 -18 -57 61 -59 -28 -35 -58 -36
right_child=1 2 3 -5 5 6 7 -9 10 -11 -12 12 16 -15 15 -17 55 -19 -20 -21 50 24 51 -25 25 26 59 28 -30 30 31 -33 33 34 62 -37 -38 38 -40 -41 43 44 -44 -45 -46 -47 -48 -49 49 -51 -52 52 -54 -55 -56 56 57 58 -60 -61 -62 -63 -64
leaf_value=0.0034709659052082928 -0.037119545697592023 0.07191127031286168 0.059393832487429236 -0.020232072267822518 0.048823228410918629 -0.056297159266601608 0.052878485626704552 -0.031900677713965334 -0.062168821957448821 -0.084422794006126581 0.034668075810781344 0.057898346672063519 -0.03840473639521242 0.062836765043746801 0.0091858135727783518 0.034445787960154267 0.042671026954457021 0.044909532564003846 -0.04865379244183534 -0.0036330474194363905 -0.0015447091417724419 -0.029823201319373185 -0.028748918507971722 -0.019076198712200742 0.05023330030269494 0.038316677544408893 -0.06898483546686747 0.0049782358173187337 -0.028360163926688345 -0.034917360624380799 0.071224595494872173 -0.029390668841198522 -0.034045152137605408 -0.0047209831228564834 -0.041755108846573727 -0.046344108873259335 -0.035154690607751962 -0.0094670371524729346 -0.038065589323714372 0.055016635515421401 -0.039510010861172673 0.075284532828492207 0.022462660606764027 -0.022376785823472953 -0.011531727694689922 -0.016474203888690916 -0.015280872238999505 0.05842130092505602 -0.041638289309260682 0.030309426281573227 0.071562538846476217 -0.046400632429640862 0.0091661646271404811 0.070172938418131811 -0.063676468752895996 -0.054639437383488233 0.069787571968173798 -0.041169695398928355 0.025940077710500553 -0.014639523563876945 -0.045773950088600558 0.0018540679803029454 -0.028858315113580536
leaf_weight=15.212763354182242 221.50827446579933 7.0871714204549816 19.617632642388344 28.710674792528152 7.8018148839473715 24.071668192744255 11.820931226015089 54.044371128082275 20.968770995736122 29.690740704536438 8.0251201540231687 20.734185978770256 30.486209660768509 18.762798562645912 16.715848207473758 21.248537510633469 12.505632549524305 6.0858350396156302 13.512988254427908 12.691253006458281 15.443708598613741 68.954308018088341 23.942873850464821 506.97173754870892 8.8193650394678134 8.8353139609098417 7.3545267432928076 10.822887361049654 16.830338478088379 68.748024627566338 5.9126487076282492 9.7215501368045789 921.40251177549362 13.946938291192053 350.30027304589748 276.08248373866081 320.54438860714436 125.24390046298504 34.272338926792145 7.0192506164312354 220.2965215742588 7.2790136933326703 12.882350981235502 218.73553960025311 4.9138953983783722 208.70760430395603 11.417819097638128 13.408080816268919 9.295473590493204 7.5034419596195212 4.7887748330831519 15.738507807254793 15.176172047853468 6.8118282109498969 36.822155117988586 7.0976878106594077 8.1941306740045565 9.3245801478624362 6.8390961289405814 26.894416555762291 35.787419021129608 6.4422768056392661 138.20726910233498
leaf_count=48 568 34 104 98 39 59 73 154 52 41 35 117 94 118 67 97 64 29 41 41 53 211 71 1606 45 38 20 40 49 197 30 30 2403 43 899 666 860 395 86 30 569 33 45 637 15 680 37 65 31 33 23 43 52 34 89 22 41 31 30 91 93 25 381
internal_value=-0.0273999 -0.0178304 -0.00630873 0.0167945 -0.0234317 -0.0202217 -0.0378391 -0.0166853 -0.0124192 -0.0588056 -0.0290227 -0.00679866 0.00766966 0.0286249 0.019596 0.00442939 -0.00430442 -0.0245407 -0.0166698 -0.0381165 -0.0173516 -0.0181974 -0.0212949 -0.0180471 -0.00807242 0.00614036 -0.0130566 -0.0193568 0.00158345 -0.0338744 -0.0268433 0.0086607 -0.0335369 -0.0337465 -0.0312266 -0.0368807 -0.0278689 -0.0244363 -0.0126346 -0.00604487 -0.0282612 -0.0123416 -0.0225915 -0.0309739 0.0402965 -0.0136573 0.0181126 0.0273333 0.0110625 -0.00950196 0.0157589 -0.0395312 -0.0191226 0.0301612 -0.0499142 0.0103787 -0.000277172 0.0122503 -0.0127745 -0.0263095 -0.0342615 0.0398864 -0.0381064
internal_weight=4435.04 1732.91 566.867 118.568 1166.04 944.535 132.319 65.8653 448.298 66.4537 113.376 334.922 107.71 89.8578 71.095 51.4774 86.9754 36.572 30.2288 36.7629 812.216 791.983 606.453 514.774 185.53 82.1106 43.0843 103.419 34.4651 105.351 84.3822 15.6342 2702.13 2686.91 1489.43 1197.48 1000.92 680.377 166.535 132.263 513.842 74.8096 62.6167 439.032 12.1929 227.213 18.505 39.0264 25.6183 16.7989 20.2325 91.6797 30.9147 17.6347 60.765 50.4034 37.8978 30.8001 16.1637 34.2489 49.7344 14.6364 488.508
internal_count=12845 5642 2073 525 3569 3001 368 227 1548 141 344 1204 453 427 309 205 336 123 108 100 2633 2557 1900 1645 657 323 149 334 123 309 257 60 7203 7155 4086 3069 2806 1946 511 425 1435 229 181 1206 48 751 71 174 109 64 76 255 95 74 160 213 149 127 61 111 136 66 1280
is_linear=0
shrinkage=0.05


Tree=14
num_leaves=64
num_cat=0
split_feature=7 6 7 6 1 5 1 5 2 5 2 3 6 3 6 2 3 7 7 3 6 1 5 7 6 6 7 2 7 6 7 2 1 7 1 2 6 3 1 1 7 2 5 2 6 6 5 7 7 6 1 1 1 7 1 5 7 7 7 6 3 2 7
split_gain=92.4176 57.0838 21.5007 21.3594 20.8883 21.8194 20.218 13.6359 20.6664 13.254 16.7689 10.56 14.0029 10.3399 9.13375 13.5977 11.2589 14.1879 10.2197 10.5933 8.96834 8.93468 9.85938 8.48033 11.9448 10.8449 7.85075 7.50669 9.46064 9.55366 8.76576 7.50508 7.79679 7.4233 8.59159 7.41354 6.62362 6.59214 6.51464 7.94488 10.0235 6.74297 6.72562 9.53149 18.2822 9.07402 8.46979 7.60385 8.80579 6.4849 6.45866 6.4269 9.19501 8.93187 5.90938 11.8312 13.2012 8.01015 5.79764 6.26656 5.80386 5.76049 5.61357
threshold=0.3743133544921875 4.855914700970688 0.39760589599609381 1.6849075134427742 131.15312500000002 120.65174500000002 140.72378500000005 116.30629500000002 176.86551500000002 116.07115250000001 177.47979500000005 101.18994700000002 5.2526294717153714 100.31346200000002 4.2077692048062678 27.359972000000003 58.016673000000004 0.39304351806640631 0.47570037841796881 95.752387000000013 2.0168302379993155 81.910305000000008 109.43501000000002 0.28533744812011724 5.220793068057632 3.945703928303903 0.44435882568359381 108.43923200000002 0.43144989013671875 5.7005230402152538 0.44829177856445318 82.673555000000007 100.69983500000002 0.69516372680664074 101.22092500000001 139.89899500000004 5.2948900280353071 115.90086500000002 90.533050000000017 88.439515000000014 0.32829093933105474 89.873505000000009 51.030727500000005 47.318260000000009 4.2624510778454487 4.4459678944532266 105.44486000000002 0.33388519287109381 0.34689712524414068 5.6616384374142283 125.97606300000001 138.89633500000005 145.91082500000002 0.40758514404296881 78.795260000000013 74.482880000000009 0.43791389465332037 0.54754829406738292 0.5181407928466798 1.2597813601516279 105.96239500000001 177.46855000000002 0.31228828430175787
decision_type=2 2 2 2 2 2 2 2 2 2 2 2 2 2 2 2 2 2 2 2 2 2 2 2 2 2 2 2 2 2 2 2 2 2 2 2 2 2 2 2 2 2 2 2 2 2 2 2 2 2 2 2 2 2 2 2 2 2 2 2 2 2 2
left_child=23 3 13 58 5 14 21 9 20 26 -11 12 -8 61 15 -5 17 -16 35 -20 -9 -4 27 25 38 -1 51 31 29 -29 -30 32 -23 54 -35 -18 -15 -28 39 42 41 -41 -25 44 -44 -45 47 -47 -49 -14 -37 -6 53 -53 -17 56 -56 -58 -2 -60 -61 -3 -40
right_child=1 2 6 4 7 -7 11 8 -10 10 -12 -13 49 36 16 33 18 -19 19 -21 -22 22 -24 24 -26 -27 37 28 30 -31 -32 -33 -34 34 -36 50 -38 -39 62 40 -42 -43 43 45 -46 46 -48 48 -50 -51 -52 52 -54 -55 55 -57 57 -59 59 60 -62 -63 -64
